<?xml version="1.0"?>
<MethodSetup Method="BDT::BDT">
  <GeneralInfo>
    <Info name="TMVA Release" value="4.2.1 [262657]"/>
    <Info name="ROOT Release" value="6.24/04 [399364]"/>
    <Info name="Creator" value="apetkovic"/>
    <Info name="Date" value="Thu Sep  9 21:37:27 2021"/>
    <Info name="Host" value="Linux buildvm-x86-21.iad2.fedoraproject.org 5.12.13-300.fc34.x86_64 #1 SMP Wed Jun 23 16:18:11 UTC 2021 x86_64 x86_64 x86_64 GNU/Linux"/>
    <Info name="Dir" value="/home/apetkovic/Master_thesis"/>
    <Info name="Training events" value="93422"/>
    <Info name="TrainingTime" value="1.62438211e+02"/>
    <Info name="AnalysisType" value="Classification"/>
  </GeneralInfo>
  <Options>
    <Option name="V" modified="Yes">False</Option>
    <Option name="VerbosityLevel" modified="No">Default</Option>
    <Option name="VarTransform" modified="No">None</Option>
    <Option name="H" modified="Yes">False</Option>
    <Option name="CreateMVAPdfs" modified="No">False</Option>
    <Option name="IgnoreNegWeightsInTraining" modified="No">False</Option>
    <Option name="NTrees" modified="Yes">1000</Option>
    <Option name="MaxDepth" modified="Yes">3</Option>
    <Option name="MinNodeSize" modified="Yes">2.5%</Option>
    <Option name="nCuts" modified="Yes">20</Option>
    <Option name="BoostType" modified="Yes">AdaBoost</Option>
    <Option name="AdaBoostR2Loss" modified="No">quadratic</Option>
    <Option name="UseBaggedBoost" modified="Yes">True</Option>
    <Option name="Shrinkage" modified="No">1.000000e+00</Option>
    <Option name="AdaBoostBeta" modified="Yes">5.000000e-01</Option>
    <Option name="UseRandomisedTrees" modified="No">False</Option>
    <Option name="UseNvars" modified="No">5</Option>
    <Option name="UsePoissonNvars" modified="No">True</Option>
    <Option name="BaggedSampleFraction" modified="Yes">5.000000e-01</Option>
    <Option name="UseYesNoLeaf" modified="No">True</Option>
    <Option name="NegWeightTreatment" modified="No">inverseboostnegweights</Option>
    <Option name="Css" modified="No">1.000000e+00</Option>
    <Option name="Cts_sb" modified="No">1.000000e+00</Option>
    <Option name="Ctb_ss" modified="No">1.000000e+00</Option>
    <Option name="Cbb" modified="No">1.000000e+00</Option>
    <Option name="NodePurityLimit" modified="No">5.000000e-01</Option>
    <Option name="SeparationType" modified="Yes">giniindex</Option>
    <Option name="RegressionLossFunctionBDTG" modified="No">huber</Option>
    <Option name="HuberQuantile" modified="No">7.000000e-01</Option>
    <Option name="DoBoostMonitor" modified="No">False</Option>
    <Option name="UseFisherCuts" modified="No">False</Option>
    <Option name="MinLinCorrForFisher" modified="No">8.000000e-01</Option>
    <Option name="UseExclusiveVars" modified="No">False</Option>
    <Option name="DoPreselection" modified="No">False</Option>
    <Option name="SigToBkgFraction" modified="No">1.000000e+00</Option>
    <Option name="PruneMethod" modified="No">nopruning</Option>
    <Option name="PruneStrength" modified="No">0.000000e+00</Option>
    <Option name="PruningValFraction" modified="No">5.000000e-01</Option>
    <Option name="SkipNormalization" modified="No">False</Option>
    <Option name="nEventsMin" modified="No">0</Option>
    <Option name="UseBaggedGrad" modified="No">False</Option>
    <Option name="GradBaggingFraction" modified="No">5.000000e-01</Option>
    <Option name="UseNTrainEvents" modified="No">0</Option>
    <Option name="NNodesMax" modified="No">0</Option>
  </Options>
  <Variables NVar="22">
    <Variable VarIndex="0" Expression="1./(1.+p_JJQCD_SIG_ghg2_1_JHUGen_JECNominal/p_JJVBF_SIG_ghv1_1_JHUGen_JECNominal)" Label="D_VBF2j" Title="D_VBF2j" Unit="" Internal="D_VBF2j" Type="F" Min="1.56082493e-07" Max="9.99940813e-01"/>
    <Variable VarIndex="1" Expression="1./(1.+p_JQCD_SIG_ghg2_1_JHUGen_JECNominal/(p_JVBF_SIG_ghv1_1_JHUGen_JECNominal*pAux_JVBF_SIG_ghv1_1_JHUGen_JECNominal))" Label="D_VBF1j" Title="D_VBF1j" Unit="" Internal="D_VBF1j" Type="F" Min="2.07303019e-05" Max="9.95140016e-01"/>
    <Variable VarIndex="2" Expression="1./(1.+(p_HadWH_mavjj_true_JECNominal*p_JJQCD_SIG_ghg2_1_JHUGen_JECNominal)/(p_HadWH_mavjj_JECNominal*p_HadWH_SIG_ghw1_1_JHUGen_JECNominal))" Label="D_WHh" Title="D_WHh" Unit="" Internal="D_WHh" Type="F" Min="1.53456748e-18" Max="5.00000000e-01"/>
    <Variable VarIndex="3" Expression="1./(1.+(p_HadZH_mavjj_true_JECNominal*p_JJQCD_SIG_ghg2_1_JHUGen_JECNominal)/(p_HadZH_mavjj_JECNominal*p_HadZH_SIG_ghz1_1_JHUGen_JECNominal))" Label="D_ZHh" Title="D_ZHh" Unit="" Internal="D_ZHh" Type="F" Min="3.43322968e-18" Max="5.00000000e-01"/>
    <Variable VarIndex="4" Expression="p_JJQCD_SIG_ghg2_1_JHUGen_JECNominal" Label="p_JJQCD_SIG_ghg2_1_JHUGen_JECNominal" Title="p_JJQCD_SIG_ghg2_1_JHUGen_JECNominal" Unit="" Internal="p_JJQCD_SIG_ghg2_1_JHUGen_JECNominal" Type="F" Min="-1.00000000e+00" Max="3.03346741e+02"/>
    <Variable VarIndex="5" Expression="p_JJVBF_SIG_ghv1_1_JHUGen_JECNominal" Label="p_JJVBF_SIG_ghv1_1_JHUGen_JECNominal" Title="p_JJVBF_SIG_ghv1_1_JHUGen_JECNominal" Unit="" Internal="p_JJVBF_SIG_ghv1_1_JHUGen_JECNominal" Type="F" Min="-1.00000000e+00" Max="1.86887684e+01"/>
    <Variable VarIndex="6" Expression="p_JQCD_SIG_ghg2_1_JHUGen_JECNominal" Label="p_JQCD_SIG_ghg2_1_JHUGen_JECNominal" Title="p_JQCD_SIG_ghg2_1_JHUGen_JECNominal" Unit="" Internal="p_JQCD_SIG_ghg2_1_JHUGen_JECNominal" Type="F" Min="-1.00000000e+00" Max="3.16339673e+03"/>
    <Variable VarIndex="7" Expression="p_JVBF_SIG_ghv1_1_JHUGen_JECNominal" Label="p_JVBF_SIG_ghv1_1_JHUGen_JECNominal" Title="p_JVBF_SIG_ghv1_1_JHUGen_JECNominal" Unit="" Internal="p_JVBF_SIG_ghv1_1_JHUGen_JECNominal" Type="F" Min="-1.00000000e+00" Max="3.01877270e+01"/>
    <Variable VarIndex="8" Expression="pAux_JVBF_SIG_ghv1_1_JHUGen_JECNominal" Label="pAux_JVBF_SIG_ghv1_1_JHUGen_JECNominal" Title="pAux_JVBF_SIG_ghv1_1_JHUGen_JECNominal" Unit="" Internal="pAux_JVBF_SIG_ghv1_1_JHUGen_JECNominal" Type="F" Min="1.35466456e-01" Max="5.63279250e+05"/>
    <Variable VarIndex="9" Expression="p_HadWH_mavjj_true_JECNominal" Label="p_HadWH_mavjj_true_JECNominal" Title="p_HadWH_mavjj_true_JECNominal" Unit="" Internal="p_HadWH_mavjj_true_JECNominal" Type="F" Min="-1.00000000e+00" Max="3.55799530e-05"/>
    <Variable VarIndex="10" Expression="p_HadWH_SIG_ghw1_1_JHUGen_JECNominal" Label="p_HadWH_SIG_ghw1_1_JHUGen_JECNominal" Title="p_HadWH_SIG_ghw1_1_JHUGen_JECNominal" Unit="" Internal="p_HadWH_SIG_ghw1_1_JHUGen_JECNominal" Type="F" Min="-1.00000000e+00" Max="2.05523189e-04"/>
    <Variable VarIndex="11" Expression="PFMET" Label="PFMET" Title="PFMET" Unit="" Internal="PFMET" Type="F" Min="9.77953002e-02" Max="3.23704834e+02"/>
    <Variable VarIndex="12" Expression="ZZPt" Label="ZZPt" Title="ZZPt" Unit="" Internal="ZZPt" Type="F" Min="1.41265169e-01" Max="8.90621765e+02"/>
    <Variable VarIndex="13" Expression="DiJetMass" Label="DiJetMass" Title="DiJetMass" Unit="" Internal="DiJetMass" Type="F" Min="-9.90000000e+01" Max="7.09291797e+03"/>
    <Variable VarIndex="14" Expression="DiJetDEta" Label="DiJetDEta" Title="DiJetDEta" Unit="" Internal="DiJetDEta" Type="F" Min="-9.90000000e+01" Max="9.05159664e+00"/>
    <Variable VarIndex="15" Expression="ZZEta" Label="ZZEta" Title="ZZEta" Unit="" Internal="ZZEta" Type="F" Min="-7.69508505e+00" Max="6.91098785e+00"/>
    <Variable VarIndex="16" Expression="ZZPhi" Label="ZZPhi" Title="ZZPhi" Unit="" Internal="ZZPhi" Type="F" Min="-3.14153790e+00" Max="3.14148831e+00"/>
    <Variable VarIndex="17" Expression="ZZjjPt" Label="ZZjjPt" Title="ZZjjPt" Unit="" Internal="ZZjjPt" Type="F" Min="-9.90000000e+01" Max="4.34308624e+02"/>
    <Variable VarIndex="18" Expression="DiJetFisher" Label="DiJetFisher" Title="DiJetFisher" Unit="" Internal="DiJetFisher" Type="F" Min="-9.90000000e+01" Max="2.81494856e+00"/>
    <Variable VarIndex="19" Expression="nCleanedJetsPt30BTagged" Label="nCleanedJetsPt30BTagged" Title="nCleanedJetsPt30BTagged" Unit="" Internal="nCleanedJetsPt30BTagged" Type="F" Min="0.00000000e+00" Max="3.00000000e+00"/>
    <Variable VarIndex="20" Expression="nExtraLep" Label="nExtraLep" Title="nExtraLep" Unit="" Internal="nExtraLep" Type="F" Min="0.00000000e+00" Max="2.00000000e+00"/>
    <Variable VarIndex="21" Expression="nCleanedJetsPt30" Label="nCleanedJetsPt30" Title="nCleanedJetsPt30" Unit="" Internal="nCleanedJetsPt30" Type="F" Min="0.00000000e+00" Max="1.00000000e+01"/>
  </Variables>
  <Spectators NSpec="0"/>
  <Classes NClass="2">
    <Class Name="Signal" Index="0"/>
    <Class Name="Background" Index="1"/>
  </Classes>
  <Transformations NTransformations="0"/>
  <MVAPdfs/>
  <Weights NTrees="1000" AnalysisType="0">
    <BinaryTree type="DecisionTree" boostWeight="5.8575228280727698e-01" itree="0">
      <Node pos="s" depth="0" NCoef="0" IVar="21" Cut="3.3333334326744080e-01" cType="0" res="-9.9000000000000000e+01" rms="0.0000000000000000e+00" purity="5.0521546602249146e-01" nType="0">
        <Node pos="l" depth="1" NCoef="0" IVar="-1" Cut="5.2374047040939331e-01" cType="0" res="-9.9000000000000000e+01" rms="0.0000000000000000e+00" purity="7.0851254463195801e-01" nType="1"/>
        <Node pos="r" depth="1" NCoef="0" IVar="-1" Cut="4.6331508636474609e+01" cType="0" res="-9.9000000000000000e+01" rms="0.0000000000000000e+00" purity="1.3719096779823303e-01" nType="-1"/>
      </Node>
    </BinaryTree>
    <BinaryTree type="DecisionTree" boostWeight="5.1671645915206832e-01" itree="1">
      <Node pos="s" depth="0" NCoef="0" IVar="0" Cut="5.2374070882797241e-01" cType="0" res="-9.9000000000000000e+01" rms="0.0000000000000000e+00" purity="4.7564756870269775e-01" nType="0">
        <Node pos="l" depth="1" NCoef="0" IVar="-1" Cut="4.5895330810546875e+02" cType="0" res="-9.9000000000000000e+01" rms="0.0000000000000000e+00" purity="9.1382551193237305e-01" nType="1"/>
        <Node pos="r" depth="1" NCoef="0" IVar="12" Cut="4.2665699005126953e+01" cType="0" res="-9.9000000000000000e+01" rms="0.0000000000000000e+00" purity="3.6318325996398926e-01" nType="0">
          <Node pos="l" depth="2" NCoef="0" IVar="1" Cut="7.9896032810211182e-01" cType="0" res="-9.9000000000000000e+01" rms="0.0000000000000000e+00" purity="5.3303796052932739e-01" nType="0">
            <Node pos="l" depth="3" NCoef="0" IVar="-1" Cut="0.0000000000000000e+00" cType="1" res="-9.9000000000000000e+01" rms="0.0000000000000000e+00" purity="6.6317218542098999e-01" nType="1"/>
            <Node pos="r" depth="3" NCoef="0" IVar="-1" Cut="0.0000000000000000e+00" cType="1" res="-9.9000000000000000e+01" rms="0.0000000000000000e+00" purity="4.6903261542320251e-01" nType="-1"/>
          </Node>
          <Node pos="r" depth="2" NCoef="0" IVar="-1" Cut="2.8571429848670959e-01" cType="0" res="-9.9000000000000000e+01" rms="0.0000000000000000e+00" purity="1.8202196061611176e-01" nType="-1"/>
        </Node>
      </Node>
    </BinaryTree>
    <BinaryTree type="DecisionTree" boostWeight="4.4140976052247427e-01" itree="2">
      <Node pos="s" depth="0" NCoef="0" IVar="21" Cut="3.8095238804817200e-01" cType="0" res="-9.9000000000000000e+01" rms="0.0000000000000000e+00" purity="4.9926716089248657e-01" nType="0">
        <Node pos="l" depth="1" NCoef="0" IVar="0" Cut="5.7135367393493652e-01" cType="0" res="-9.9000000000000000e+01" rms="0.0000000000000000e+00" purity="6.4150494337081909e-01" nType="0">
          <Node pos="l" depth="2" NCoef="0" IVar="-1" Cut="4.8675711059570312e+02" cType="0" res="-9.9000000000000000e+01" rms="0.0000000000000000e+00" purity="8.9819508790969849e-01" nType="1"/>
          <Node pos="r" depth="2" NCoef="0" IVar="12" Cut="8.3597259521484375e+01" cType="0" res="-9.9000000000000000e+01" rms="0.0000000000000000e+00" purity="5.4384005069732666e-01" nType="0">
            <Node pos="l" depth="3" NCoef="0" IVar="-1" Cut="0.0000000000000000e+00" cType="1" res="-9.9000000000000000e+01" rms="0.0000000000000000e+00" purity="6.3311523199081421e-01" nType="1"/>
            <Node pos="r" depth="3" NCoef="0" IVar="-1" Cut="0.0000000000000000e+00" cType="1" res="-9.9000000000000000e+01" rms="0.0000000000000000e+00" purity="4.7876632213592529e-01" nType="-1"/>
          </Node>
        </Node>
        <Node pos="r" depth="1" NCoef="0" IVar="12" Cut="4.5788959503173828e+01" cType="0" res="-9.9000000000000000e+01" rms="0.0000000000000000e+00" purity="2.2234496474266052e-01" nType="0">
          <Node pos="l" depth="2" NCoef="0" IVar="-1" Cut="0.0000000000000000e+00" cType="1" res="-9.9000000000000000e+01" rms="0.0000000000000000e+00" purity="5.8613711595535278e-01" nType="1"/>
          <Node pos="r" depth="2" NCoef="0" IVar="-1" Cut="2.4138910293579102e+01" cType="0" res="-9.9000000000000000e+01" rms="0.0000000000000000e+00" purity="1.6512891650199890e-01" nType="-1"/>
        </Node>
      </Node>
    </BinaryTree>
    <BinaryTree type="DecisionTree" boostWeight="3.6417622933505445e-01" itree="3">
      <Node pos="s" depth="0" NCoef="0" IVar="21" Cut="4.2857143282890320e-01" cType="0" res="-9.9000000000000000e+01" rms="0.0000000000000000e+00" purity="5.0520801544189453e-01" nType="0">
        <Node pos="l" depth="1" NCoef="0" IVar="-1" Cut="5.2377891540527344e-01" cType="0" res="-9.9000000000000000e+01" rms="0.0000000000000000e+00" purity="6.2997156381607056e-01" nType="1"/>
        <Node pos="r" depth="1" NCoef="0" IVar="12" Cut="2.6382194519042969e+01" cType="0" res="-9.9000000000000000e+01" rms="0.0000000000000000e+00" purity="2.4958799779415131e-01" nType="0">
          <Node pos="l" depth="2" NCoef="0" IVar="12" Cut="4.9987648010253906e+01" cType="0" res="-9.9000000000000000e+01" rms="0.0000000000000000e+00" purity="3.9715313911437988e-01" nType="0">
            <Node pos="l" depth="3" NCoef="0" IVar="-1" Cut="0.0000000000000000e+00" cType="1" res="-9.9000000000000000e+01" rms="0.0000000000000000e+00" purity="5.7003957033157349e-01" nType="1"/>
            <Node pos="r" depth="3" NCoef="0" IVar="-1" Cut="0.0000000000000000e+00" cType="1" res="-9.9000000000000000e+01" rms="0.0000000000000000e+00" purity="3.3673220872879028e-01" nType="-1"/>
          </Node>
          <Node pos="r" depth="2" NCoef="0" IVar="-1" Cut="1.6442996978759766e+01" cType="0" res="-9.9000000000000000e+01" rms="0.0000000000000000e+00" purity="1.4380049705505371e-01" nType="-1"/>
        </Node>
      </Node>
    </BinaryTree>
    <BinaryTree type="DecisionTree" boostWeight="3.2125175008112350e-01" itree="4">
      <Node pos="s" depth="0" NCoef="0" IVar="0" Cut="5.7135343551635742e-01" cType="0" res="-9.9000000000000000e+01" rms="0.0000000000000000e+00" purity="4.8796924948692322e-01" nType="0">
        <Node pos="l" depth="1" NCoef="0" IVar="-1" Cut="6.8041931152343750e+02" cType="0" res="-9.9000000000000000e+01" rms="0.0000000000000000e+00" purity="8.5541176795959473e-01" nType="1"/>
        <Node pos="r" depth="1" NCoef="0" IVar="12" Cut="4.0163204193115234e+01" cType="0" res="-9.9000000000000000e+01" rms="0.0000000000000000e+00" purity="4.1359981894493103e-01" nType="0">
          <Node pos="l" depth="2" NCoef="0" IVar="1" Cut="7.5198197364807129e-01" cType="0" res="-9.9000000000000000e+01" rms="0.0000000000000000e+00" purity="5.0742650032043457e-01" nType="0">
            <Node pos="l" depth="3" NCoef="0" IVar="-1" Cut="0.0000000000000000e+00" cType="1" res="-9.9000000000000000e+01" rms="0.0000000000000000e+00" purity="5.6504428386688232e-01" nType="1"/>
            <Node pos="r" depth="3" NCoef="0" IVar="-1" Cut="0.0000000000000000e+00" cType="1" res="-9.9000000000000000e+01" rms="0.0000000000000000e+00" purity="4.7285512089729309e-01" nType="-1"/>
          </Node>
          <Node pos="r" depth="2" NCoef="0" IVar="-1" Cut="2.3809523880481720e-01" cType="0" res="-9.9000000000000000e+01" rms="0.0000000000000000e+00" purity="2.8264588117599487e-01" nType="-1"/>
        </Node>
      </Node>
    </BinaryTree>
    <BinaryTree type="DecisionTree" boostWeight="2.8250207329010102e-01" itree="5">
      <Node pos="s" depth="0" NCoef="0" IVar="13" Cut="2.4347229003906250e+02" cType="0" res="-9.9000000000000000e+01" rms="0.0000000000000000e+00" purity="5.0021880865097046e-01" nType="0">
        <Node pos="l" depth="1" NCoef="0" IVar="-1" Cut="5.6973638916015625e+02" cType="0" res="-9.9000000000000000e+01" rms="0.0000000000000000e+00" purity="8.0569654703140259e-01" nType="1"/>
        <Node pos="r" depth="1" NCoef="0" IVar="12" Cut="3.6770839691162109e+01" cType="0" res="-9.9000000000000000e+01" rms="0.0000000000000000e+00" purity="4.2899832129478455e-01" nType="0">
          <Node pos="l" depth="2" NCoef="0" IVar="12" Cut="7.1657012939453125e+01" cType="0" res="-9.9000000000000000e+01" rms="0.0000000000000000e+00" purity="5.0938266515731812e-01" nType="0">
            <Node pos="l" depth="3" NCoef="0" IVar="-1" Cut="0.0000000000000000e+00" cType="1" res="-9.9000000000000000e+01" rms="0.0000000000000000e+00" purity="5.4360908269882202e-01" nType="1"/>
            <Node pos="r" depth="3" NCoef="0" IVar="-1" Cut="0.0000000000000000e+00" cType="1" res="-9.9000000000000000e+01" rms="0.0000000000000000e+00" purity="4.7302529215812683e-01" nType="-1"/>
          </Node>
          <Node pos="r" depth="2" NCoef="0" IVar="-1" Cut="2.3809523880481720e-01" cType="0" res="-9.9000000000000000e+01" rms="0.0000000000000000e+00" purity="3.0309554934501648e-01" nType="-1"/>
        </Node>
      </Node>
    </BinaryTree>
    <BinaryTree type="DecisionTree" boostWeight="2.2956964706656910e-01" itree="6">
      <Node pos="s" depth="0" NCoef="0" IVar="0" Cut="5.2368611097335815e-01" cType="0" res="-9.9000000000000000e+01" rms="0.0000000000000000e+00" purity="5.0480413436889648e-01" nType="0">
        <Node pos="l" depth="1" NCoef="0" IVar="-1" Cut="7.3110028076171875e+02" cType="0" res="-9.9000000000000000e+01" rms="0.0000000000000000e+00" purity="8.2023239135742188e-01" nType="1"/>
        <Node pos="r" depth="1" NCoef="0" IVar="21" Cut="3.3333334326744080e-01" cType="0" res="-9.9000000000000000e+01" rms="0.0000000000000000e+00" purity="4.4318225979804993e-01" nType="0">
          <Node pos="l" depth="2" NCoef="0" IVar="-1" Cut="6.4256491661071777e+00" cType="0" res="-9.9000000000000000e+01" rms="0.0000000000000000e+00" purity="5.1113653182983398e-01" nType="1"/>
          <Node pos="r" depth="2" NCoef="0" IVar="12" Cut="3.0954740524291992e+01" cType="0" res="-9.9000000000000000e+01" rms="0.0000000000000000e+00" purity="3.3175066113471985e-01" nType="0">
            <Node pos="l" depth="3" NCoef="0" IVar="-1" Cut="0.0000000000000000e+00" cType="1" res="-9.9000000000000000e+01" rms="0.0000000000000000e+00" purity="5.0604027509689331e-01" nType="1"/>
            <Node pos="r" depth="3" NCoef="0" IVar="-1" Cut="0.0000000000000000e+00" cType="1" res="-9.9000000000000000e+01" rms="0.0000000000000000e+00" purity="2.3489736020565033e-01" nType="-1"/>
          </Node>
        </Node>
      </Node>
    </BinaryTree>
    <BinaryTree type="DecisionTree" boostWeight="2.2674698269793533e-01" itree="7">
      <Node pos="s" depth="0" NCoef="0" IVar="13" Cut="4.5069619750976562e+02" cType="0" res="-9.9000000000000000e+01" rms="0.0000000000000000e+00" purity="4.8055750131607056e-01" nType="0">
        <Node pos="l" depth="1" NCoef="0" IVar="-1" Cut="3.6929413520236931e-12" cType="1" res="-9.9000000000000000e+01" rms="0.0000000000000000e+00" purity="8.3673787117004395e-01" nType="1"/>
        <Node pos="r" depth="1" NCoef="0" IVar="12" Cut="3.5276817321777344e+01" cType="0" res="-9.9000000000000000e+01" rms="0.0000000000000000e+00" purity="4.2964577674865723e-01" nType="0">
          <Node pos="l" depth="2" NCoef="0" IVar="13" Cut="3.1980755615234375e+02" cType="0" res="-9.9000000000000000e+01" rms="0.0000000000000000e+00" purity="4.8616275191307068e-01" nType="0">
            <Node pos="l" depth="3" NCoef="0" IVar="-1" Cut="0.0000000000000000e+00" cType="1" res="-9.9000000000000000e+01" rms="0.0000000000000000e+00" purity="6.3355523347854614e-01" nType="1"/>
            <Node pos="r" depth="3" NCoef="0" IVar="-1" Cut="0.0000000000000000e+00" cType="1" res="-9.9000000000000000e+01" rms="0.0000000000000000e+00" purity="4.7827091813087463e-01" nType="-1"/>
          </Node>
          <Node pos="r" depth="2" NCoef="0" IVar="-1" Cut="1.6952316284179688e+01" cType="0" res="-9.9000000000000000e+01" rms="0.0000000000000000e+00" purity="3.2148852944374084e-01" nType="-1"/>
        </Node>
      </Node>
    </BinaryTree>
    <BinaryTree type="DecisionTree" boostWeight="1.8402858772573882e-01" itree="8">
      <Node pos="s" depth="0" NCoef="0" IVar="13" Cut="4.6000726318359375e+02" cType="0" res="-9.9000000000000000e+01" rms="0.0000000000000000e+00" purity="5.0156199932098389e-01" nType="0">
        <Node pos="l" depth="1" NCoef="0" IVar="-1" Cut="3.7629756927490234e+01" cType="1" res="-9.9000000000000000e+01" rms="0.0000000000000000e+00" purity="8.2167619466781616e-01" nType="1"/>
        <Node pos="r" depth="1" NCoef="0" IVar="12" Cut="3.5842529296875000e+01" cType="0" res="-9.9000000000000000e+01" rms="0.0000000000000000e+00" purity="4.5860299468040466e-01" nType="0">
          <Node pos="l" depth="2" NCoef="0" IVar="-1" Cut="4.4774618148803711e+00" cType="0" res="-9.9000000000000000e+01" rms="0.0000000000000000e+00" purity="5.1420807838439941e-01" nType="1"/>
          <Node pos="r" depth="2" NCoef="0" IVar="-1" Cut="1.7220640182495117e+01" cType="0" res="-9.9000000000000000e+01" rms="0.0000000000000000e+00" purity="3.5267353057861328e-01" nType="-1"/>
        </Node>
      </Node>
    </BinaryTree>
    <BinaryTree type="DecisionTree" boostWeight="1.8128021402940220e-01" itree="9">
      <Node pos="s" depth="0" NCoef="0" IVar="0" Cut="6.6648894548416138e-01" cType="0" res="-9.9000000000000000e+01" rms="0.0000000000000000e+00" purity="4.9545273184776306e-01" nType="0">
        <Node pos="l" depth="1" NCoef="0" IVar="-1" Cut="4.9403448486328125e+02" cType="0" res="-9.9000000000000000e+01" rms="0.0000000000000000e+00" purity="7.7760148048400879e-01" nType="1"/>
        <Node pos="r" depth="1" NCoef="0" IVar="21" Cut="4.2857143282890320e-01" cType="0" res="-9.9000000000000000e+01" rms="0.0000000000000000e+00" purity="4.5310378074645996e-01" nType="0">
          <Node pos="l" depth="2" NCoef="0" IVar="7" Cut="3.2940249443054199e+00" cType="0" res="-9.9000000000000000e+01" rms="0.0000000000000000e+00" purity="4.9786910414695740e-01" nType="0">
            <Node pos="l" depth="3" NCoef="0" IVar="-1" Cut="0.0000000000000000e+00" cType="1" res="-9.9000000000000000e+01" rms="0.0000000000000000e+00" purity="5.6872743368148804e-01" nType="1"/>
            <Node pos="r" depth="3" NCoef="0" IVar="-1" Cut="0.0000000000000000e+00" cType="1" res="-9.9000000000000000e+01" rms="0.0000000000000000e+00" purity="4.8388642072677612e-01" nType="-1"/>
          </Node>
          <Node pos="r" depth="2" NCoef="0" IVar="-1" Cut="1.5735348701477051e+01" cType="0" res="-9.9000000000000000e+01" rms="0.0000000000000000e+00" purity="3.7265533208847046e-01" nType="-1"/>
        </Node>
      </Node>
    </BinaryTree>
    <BinaryTree type="DecisionTree" boostWeight="1.5885338409643013e-01" itree="10">
      <Node pos="s" depth="0" NCoef="0" IVar="13" Cut="5.1188070678710938e+02" cType="0" res="-9.9000000000000000e+01" rms="0.0000000000000000e+00" purity="5.0976359844207764e-01" nType="0">
        <Node pos="l" depth="1" NCoef="0" IVar="-1" Cut="7.2920884825258825e-13" cType="1" res="-9.9000000000000000e+01" rms="0.0000000000000000e+00" purity="8.3257788419723511e-01" nType="1"/>
        <Node pos="r" depth="1" NCoef="0" IVar="21" Cut="3.3333334326744080e-01" cType="0" res="-9.9000000000000000e+01" rms="0.0000000000000000e+00" purity="4.7184050083160400e-01" nType="0">
          <Node pos="l" depth="2" NCoef="0" IVar="13" Cut="1.3344535827636719e+02" cType="0" res="-9.9000000000000000e+01" rms="0.0000000000000000e+00" purity="5.1469349861145020e-01" nType="0">
            <Node pos="l" depth="3" NCoef="0" IVar="-1" Cut="0.0000000000000000e+00" cType="1" res="-9.9000000000000000e+01" rms="0.0000000000000000e+00" purity="5.7540768384933472e-01" nType="1"/>
            <Node pos="r" depth="3" NCoef="0" IVar="-1" Cut="0.0000000000000000e+00" cType="1" res="-9.9000000000000000e+01" rms="0.0000000000000000e+00" purity="4.9864292144775391e-01" nType="-1"/>
          </Node>
          <Node pos="r" depth="2" NCoef="0" IVar="-1" Cut="2.6448011398315430e+01" cType="0" res="-9.9000000000000000e+01" rms="0.0000000000000000e+00" purity="3.8893088698387146e-01" nType="-1"/>
        </Node>
      </Node>
    </BinaryTree>
    <BinaryTree type="DecisionTree" boostWeight="1.4918223498912236e-01" itree="11">
      <Node pos="s" depth="0" NCoef="0" IVar="13" Cut="5.0158062744140625e+02" cType="0" res="-9.9000000000000000e+01" rms="0.0000000000000000e+00" purity="5.1785671710968018e-01" nType="0">
        <Node pos="l" depth="1" NCoef="0" IVar="-1" Cut="2.7970277786254883e+01" cType="1" res="-9.9000000000000000e+01" rms="0.0000000000000000e+00" purity="7.7244651317596436e-01" nType="1"/>
        <Node pos="r" depth="1" NCoef="0" IVar="21" Cut="3.3333334326744080e-01" cType="0" res="-9.9000000000000000e+01" rms="0.0000000000000000e+00" purity="4.8650732636451721e-01" nType="0">
          <Node pos="l" depth="2" NCoef="0" IVar="-1" Cut="7.7573390007019043e+00" cType="0" res="-9.9000000000000000e+01" rms="0.0000000000000000e+00" purity="5.2750974893569946e-01" nType="1"/>
          <Node pos="r" depth="2" NCoef="0" IVar="-1" Cut="1.3313369750976562e+01" cType="0" res="-9.9000000000000000e+01" rms="0.0000000000000000e+00" purity="4.0815070271492004e-01" nType="-1"/>
        </Node>
      </Node>
    </BinaryTree>
    <BinaryTree type="DecisionTree" boostWeight="1.4025974987432074e-01" itree="12">
      <Node pos="s" depth="0" NCoef="0" IVar="13" Cut="4.2480566406250000e+02" cType="0" res="-9.9000000000000000e+01" rms="0.0000000000000000e+00" purity="5.1221066713333130e-01" nType="0">
        <Node pos="l" depth="1" NCoef="0" IVar="-1" Cut="1.5720177980529937e-12" cType="1" res="-9.9000000000000000e+01" rms="0.0000000000000000e+00" purity="7.6101452112197876e-01" nType="1"/>
        <Node pos="r" depth="1" NCoef="0" IVar="21" Cut="4.7619047760963440e-01" cType="0" res="-9.9000000000000000e+01" rms="0.0000000000000000e+00" purity="4.7893568873405457e-01" nType="0">
          <Node pos="l" depth="2" NCoef="0" IVar="7" Cut="6.0436816215515137e+00" cType="0" res="-9.9000000000000000e+01" rms="0.0000000000000000e+00" purity="5.0287955999374390e-01" nType="0">
            <Node pos="l" depth="3" NCoef="0" IVar="-1" Cut="0.0000000000000000e+00" cType="1" res="-9.9000000000000000e+01" rms="0.0000000000000000e+00" purity="5.9758841991424561e-01" nType="1"/>
            <Node pos="r" depth="3" NCoef="0" IVar="-1" Cut="0.0000000000000000e+00" cType="1" res="-9.9000000000000000e+01" rms="0.0000000000000000e+00" purity="4.9334120750427246e-01" nType="-1"/>
          </Node>
          <Node pos="r" depth="2" NCoef="0" IVar="12" Cut="2.4534370422363281e+01" cType="0" res="-9.9000000000000000e+01" rms="0.0000000000000000e+00" purity="4.3508607149124146e-01" nType="0">
            <Node pos="l" depth="3" NCoef="0" IVar="-1" Cut="0.0000000000000000e+00" cType="1" res="-9.9000000000000000e+01" rms="0.0000000000000000e+00" purity="5.3202116489410400e-01" nType="1"/>
            <Node pos="r" depth="3" NCoef="0" IVar="-1" Cut="0.0000000000000000e+00" cType="1" res="-9.9000000000000000e+01" rms="0.0000000000000000e+00" purity="3.3538627624511719e-01" nType="-1"/>
          </Node>
        </Node>
      </Node>
    </BinaryTree>
    <BinaryTree type="DecisionTree" boostWeight="1.5331370652112566e-01" itree="13">
      <Node pos="s" depth="0" NCoef="0" IVar="0" Cut="6.6657871007919312e-01" cType="0" res="-9.9000000000000000e+01" rms="0.0000000000000000e+00" purity="5.1996749639511108e-01" nType="0">
        <Node pos="l" depth="1" NCoef="0" IVar="-1" Cut="1.1512999267578125e+03" cType="0" res="-9.9000000000000000e+01" rms="0.0000000000000000e+00" purity="7.4186825752258301e-01" nType="1"/>
        <Node pos="r" depth="1" NCoef="0" IVar="21" Cut="4.7619047760963440e-01" cType="0" res="-9.9000000000000000e+01" rms="0.0000000000000000e+00" purity="4.8961475491523743e-01" nType="0">
          <Node pos="l" depth="2" NCoef="0" IVar="0" Cut="2.8561452031135559e-01" cType="0" res="-9.9000000000000000e+01" rms="0.0000000000000000e+00" purity="5.2377945184707642e-01" nType="0">
            <Node pos="l" depth="3" NCoef="0" IVar="-1" Cut="0.0000000000000000e+00" cType="1" res="-9.9000000000000000e+01" rms="0.0000000000000000e+00" purity="5.3426778316497803e-01" nType="1"/>
            <Node pos="r" depth="3" NCoef="0" IVar="-1" Cut="0.0000000000000000e+00" cType="1" res="-9.9000000000000000e+01" rms="0.0000000000000000e+00" purity="4.7802487015724182e-01" nType="-1"/>
          </Node>
          <Node pos="r" depth="2" NCoef="0" IVar="12" Cut="2.4814285278320312e+01" cType="0" res="-9.9000000000000000e+01" rms="0.0000000000000000e+00" purity="4.2676582932472229e-01" nType="0">
            <Node pos="l" depth="3" NCoef="0" IVar="-1" Cut="0.0000000000000000e+00" cType="1" res="-9.9000000000000000e+01" rms="0.0000000000000000e+00" purity="5.1947307586669922e-01" nType="1"/>
            <Node pos="r" depth="3" NCoef="0" IVar="-1" Cut="0.0000000000000000e+00" cType="1" res="-9.9000000000000000e+01" rms="0.0000000000000000e+00" purity="3.3354470133781433e-01" nType="-1"/>
          </Node>
        </Node>
      </Node>
    </BinaryTree>
    <BinaryTree type="DecisionTree" boostWeight="1.0874448044028977e-01" itree="14">
      <Node pos="s" depth="0" NCoef="0" IVar="13" Cut="5.8594458007812500e+02" cType="0" res="-9.9000000000000000e+01" rms="0.0000000000000000e+00" purity="5.0613707304000854e-01" nType="0">
        <Node pos="l" depth="1" NCoef="0" IVar="-1" Cut="2.8400648117065430e+01" cType="1" res="-9.9000000000000000e+01" rms="0.0000000000000000e+00" purity="7.8307032585144043e-01" nType="1"/>
        <Node pos="r" depth="1" NCoef="0" IVar="21" Cut="3.3333334326744080e-01" cType="0" res="-9.9000000000000000e+01" rms="0.0000000000000000e+00" purity="4.8078054189682007e-01" nType="0">
          <Node pos="l" depth="2" NCoef="0" IVar="0" Cut="5.1154607534408569e-01" cType="0" res="-9.9000000000000000e+01" rms="0.0000000000000000e+00" purity="5.0955677032470703e-01" nType="0">
            <Node pos="l" depth="3" NCoef="0" IVar="-1" Cut="0.0000000000000000e+00" cType="1" res="-9.9000000000000000e+01" rms="0.0000000000000000e+00" purity="5.9153711795806885e-01" nType="1"/>
            <Node pos="r" depth="3" NCoef="0" IVar="-1" Cut="0.0000000000000000e+00" cType="1" res="-9.9000000000000000e+01" rms="0.0000000000000000e+00" purity="4.9898195266723633e-01" nType="-1"/>
          </Node>
          <Node pos="r" depth="2" NCoef="0" IVar="-1" Cut="1.2801365852355957e+01" cType="0" res="-9.9000000000000000e+01" rms="0.0000000000000000e+00" purity="4.2278933525085449e-01" nType="-1"/>
        </Node>
      </Node>
    </BinaryTree>
    <BinaryTree type="DecisionTree" boostWeight="1.2037478673842544e-01" itree="15">
      <Node pos="s" depth="0" NCoef="0" IVar="13" Cut="5.8594458007812500e+02" cType="0" res="-9.9000000000000000e+01" rms="0.0000000000000000e+00" purity="5.2024114131927490e-01" nType="0">
        <Node pos="l" depth="1" NCoef="0" IVar="-1" Cut="1.2576181415702159e-12" cType="1" res="-9.9000000000000000e+01" rms="0.0000000000000000e+00" purity="7.4882811307907104e-01" nType="1"/>
        <Node pos="r" depth="1" NCoef="0" IVar="21" Cut="4.7619047760963440e-01" cType="0" res="-9.9000000000000000e+01" rms="0.0000000000000000e+00" purity="4.9875774979591370e-01" nType="0">
          <Node pos="l" depth="2" NCoef="0" IVar="0" Cut="2.7990141510963440e-01" cType="0" res="-9.9000000000000000e+01" rms="0.0000000000000000e+00" purity="5.2484726905822754e-01" nType="0">
            <Node pos="l" depth="3" NCoef="0" IVar="-1" Cut="0.0000000000000000e+00" cType="1" res="-9.9000000000000000e+01" rms="0.0000000000000000e+00" purity="5.3348833322525024e-01" nType="1"/>
            <Node pos="r" depth="3" NCoef="0" IVar="-1" Cut="0.0000000000000000e+00" cType="1" res="-9.9000000000000000e+01" rms="0.0000000000000000e+00" purity="4.8043200373649597e-01" nType="-1"/>
          </Node>
          <Node pos="r" depth="2" NCoef="0" IVar="12" Cut="1.5731214523315430e+01" cType="0" res="-9.9000000000000000e+01" rms="0.0000000000000000e+00" purity="4.4676885008811951e-01" nType="0">
            <Node pos="l" depth="3" NCoef="0" IVar="-1" Cut="0.0000000000000000e+00" cType="1" res="-9.9000000000000000e+01" rms="0.0000000000000000e+00" purity="5.0725317001342773e-01" nType="1"/>
            <Node pos="r" depth="3" NCoef="0" IVar="-1" Cut="0.0000000000000000e+00" cType="1" res="-9.9000000000000000e+01" rms="0.0000000000000000e+00" purity="2.7835381031036377e-01" nType="-1"/>
          </Node>
        </Node>
      </Node>
    </BinaryTree>
    <BinaryTree type="DecisionTree" boostWeight="1.0311908042120653e-01" itree="16">
      <Node pos="s" depth="0" NCoef="0" IVar="13" Cut="5.8594458007812500e+02" cType="0" res="-9.9000000000000000e+01" rms="0.0000000000000000e+00" purity="5.1243007183074951e-01" nType="0">
        <Node pos="l" depth="1" NCoef="0" IVar="-1" Cut="1.0091500282287598e+00" cType="0" res="-9.9000000000000000e+01" rms="0.0000000000000000e+00" purity="7.5754624605178833e-01" nType="1"/>
        <Node pos="r" depth="1" NCoef="0" IVar="21" Cut="4.2857143282890320e-01" cType="0" res="-9.9000000000000000e+01" rms="0.0000000000000000e+00" purity="4.8961600661277771e-01" nType="0">
          <Node pos="l" depth="2" NCoef="0" IVar="1" Cut="5.1864510774612427e-01" cType="1" res="-9.9000000000000000e+01" rms="0.0000000000000000e+00" purity="5.1446992158889771e-01" nType="0">
            <Node pos="l" depth="3" NCoef="0" IVar="-1" Cut="0.0000000000000000e+00" cType="1" res="-9.9000000000000000e+01" rms="0.0000000000000000e+00" purity="5.4219144582748413e-01" nType="1"/>
            <Node pos="r" depth="3" NCoef="0" IVar="-1" Cut="0.0000000000000000e+00" cType="1" res="-9.9000000000000000e+01" rms="0.0000000000000000e+00" purity="4.9693065881729126e-01" nType="-1"/>
          </Node>
          <Node pos="r" depth="2" NCoef="0" IVar="-1" Cut="1.5641487121582031e+01" cType="0" res="-9.9000000000000000e+01" rms="0.0000000000000000e+00" purity="4.3987613916397095e-01" nType="-1"/>
        </Node>
      </Node>
    </BinaryTree>
    <BinaryTree type="DecisionTree" boostWeight="9.8866492109156628e-02" itree="17">
      <Node pos="s" depth="0" NCoef="0" IVar="13" Cut="5.8594458007812500e+02" cType="0" res="-9.9000000000000000e+01" rms="0.0000000000000000e+00" purity="5.1533919572830200e-01" nType="0">
        <Node pos="l" depth="1" NCoef="0" IVar="-1" Cut="3.0687671661376953e+01" cType="1" res="-9.9000000000000000e+01" rms="0.0000000000000000e+00" purity="7.6063615083694458e-01" nType="1"/>
        <Node pos="r" depth="1" NCoef="0" IVar="21" Cut="4.7619047760963440e-01" cType="0" res="-9.9000000000000000e+01" rms="0.0000000000000000e+00" purity="4.9388706684112549e-01" nType="0">
          <Node pos="l" depth="2" NCoef="0" IVar="-1" Cut="7.9107789993286133e+00" cType="0" res="-9.9000000000000000e+01" rms="0.0000000000000000e+00" purity="5.1412093639373779e-01" nType="1"/>
          <Node pos="r" depth="2" NCoef="0" IVar="12" Cut="2.4650775909423828e+01" cType="0" res="-9.9000000000000000e+01" rms="0.0000000000000000e+00" purity="4.5402953028678894e-01" nType="0">
            <Node pos="l" depth="3" NCoef="0" IVar="-1" Cut="0.0000000000000000e+00" cType="1" res="-9.9000000000000000e+01" rms="0.0000000000000000e+00" purity="5.1735597848892212e-01" nType="1"/>
            <Node pos="r" depth="3" NCoef="0" IVar="-1" Cut="0.0000000000000000e+00" cType="1" res="-9.9000000000000000e+01" rms="0.0000000000000000e+00" purity="3.8852083683013916e-01" nType="-1"/>
          </Node>
        </Node>
      </Node>
    </BinaryTree>
    <BinaryTree type="DecisionTree" boostWeight="8.6531462567385309e-02" itree="18">
      <Node pos="s" depth="0" NCoef="0" IVar="13" Cut="5.2568273925781250e+02" cType="0" res="-9.9000000000000000e+01" rms="0.0000000000000000e+00" purity="5.0692725181579590e-01" nType="0">
        <Node pos="l" depth="1" NCoef="0" IVar="-1" Cut="3.0931358337402344e+01" cType="1" res="-9.9000000000000000e+01" rms="0.0000000000000000e+00" purity="7.3447889089584351e-01" nType="1"/>
        <Node pos="r" depth="1" NCoef="0" IVar="21" Cut="3.3333334326744080e-01" cType="0" res="-9.9000000000000000e+01" rms="0.0000000000000000e+00" purity="4.8445898294448853e-01" nType="0">
          <Node pos="l" depth="2" NCoef="0" IVar="7" Cut="5.8468270301818848e+00" cType="0" res="-9.9000000000000000e+01" rms="0.0000000000000000e+00" purity="5.0443696975708008e-01" nType="0">
            <Node pos="l" depth="3" NCoef="0" IVar="-1" Cut="0.0000000000000000e+00" cType="1" res="-9.9000000000000000e+01" rms="0.0000000000000000e+00" purity="5.7298791408538818e-01" nType="1"/>
            <Node pos="r" depth="3" NCoef="0" IVar="-1" Cut="0.0000000000000000e+00" cType="1" res="-9.9000000000000000e+01" rms="0.0000000000000000e+00" purity="4.9766963720321655e-01" nType="-1"/>
          </Node>
          <Node pos="r" depth="2" NCoef="0" IVar="-1" Cut="1.3443119049072266e+01" cType="0" res="-9.9000000000000000e+01" rms="0.0000000000000000e+00" purity="4.4474589824676514e-01" nType="-1"/>
        </Node>
      </Node>
    </BinaryTree>
    <BinaryTree type="DecisionTree" boostWeight="6.7129736859300321e-02" itree="19">
      <Node pos="s" depth="0" NCoef="0" IVar="13" Cut="8.3802404785156250e+02" cType="0" res="-9.9000000000000000e+01" rms="0.0000000000000000e+00" purity="5.1289868354797363e-01" nType="0">
        <Node pos="l" depth="1" NCoef="0" IVar="-1" Cut="9.0525609254837036e-01" cType="0" res="-9.9000000000000000e+01" rms="0.0000000000000000e+00" purity="7.8033041954040527e-01" nType="1"/>
        <Node pos="r" depth="1" NCoef="0" IVar="13" Cut="5.7028259277343750e+02" cType="0" res="-9.9000000000000000e+01" rms="0.0000000000000000e+00" purity="4.9849718809127808e-01" nType="0">
          <Node pos="l" depth="2" NCoef="0" IVar="-1" Cut="0.0000000000000000e+00" cType="1" res="-9.9000000000000000e+01" rms="0.0000000000000000e+00" purity="6.2312042713165283e-01" nType="1"/>
          <Node pos="r" depth="2" NCoef="0" IVar="7" Cut="3.4553894996643066e+00" cType="0" res="-9.9000000000000000e+01" rms="0.0000000000000000e+00" purity="4.9401250481605530e-01" nType="0">
            <Node pos="l" depth="3" NCoef="0" IVar="-1" Cut="0.0000000000000000e+00" cType="1" res="-9.9000000000000000e+01" rms="0.0000000000000000e+00" purity="5.5408018827438354e-01" nType="1"/>
            <Node pos="r" depth="3" NCoef="0" IVar="-1" Cut="0.0000000000000000e+00" cType="1" res="-9.9000000000000000e+01" rms="0.0000000000000000e+00" purity="4.8753193020820618e-01" nType="-1"/>
          </Node>
        </Node>
      </Node>
    </BinaryTree>
    <BinaryTree type="DecisionTree" boostWeight="6.8492363398414927e-02" itree="20">
      <Node pos="s" depth="0" NCoef="0" IVar="13" Cut="8.1732110595703125e+02" cType="0" res="-9.9000000000000000e+01" rms="0.0000000000000000e+00" purity="5.1216518878936768e-01" nType="0">
        <Node pos="l" depth="1" NCoef="0" IVar="-1" Cut="1.2176707983016968e+00" cType="0" res="-9.9000000000000000e+01" rms="0.0000000000000000e+00" purity="7.8033906221389771e-01" nType="1"/>
        <Node pos="r" depth="1" NCoef="0" IVar="13" Cut="5.1162124633789062e+02" cType="0" res="-9.9000000000000000e+01" rms="0.0000000000000000e+00" purity="4.9650698900222778e-01" nType="0">
          <Node pos="l" depth="2" NCoef="0" IVar="-1" Cut="0.0000000000000000e+00" cType="1" res="-9.9000000000000000e+01" rms="0.0000000000000000e+00" purity="6.1078643798828125e-01" nType="1"/>
          <Node pos="r" depth="2" NCoef="0" IVar="21" Cut="4.7619047760963440e-01" cType="0" res="-9.9000000000000000e+01" rms="0.0000000000000000e+00" purity="4.9149981141090393e-01" nType="0">
            <Node pos="l" depth="3" NCoef="0" IVar="-1" Cut="0.0000000000000000e+00" cType="1" res="-9.9000000000000000e+01" rms="0.0000000000000000e+00" purity="5.0550121068954468e-01" nType="1"/>
            <Node pos="r" depth="3" NCoef="0" IVar="-1" Cut="0.0000000000000000e+00" cType="1" res="-9.9000000000000000e+01" rms="0.0000000000000000e+00" purity="4.6349877119064331e-01" nType="-1"/>
          </Node>
        </Node>
      </Node>
    </BinaryTree>
    <BinaryTree type="DecisionTree" boostWeight="6.9419593075640038e-02" itree="21">
      <Node pos="s" depth="0" NCoef="0" IVar="13" Cut="8.0187097167968750e+02" cType="0" res="-9.9000000000000000e+01" rms="0.0000000000000000e+00" purity="5.0783044099807739e-01" nType="0">
        <Node pos="l" depth="1" NCoef="0" IVar="-1" Cut="4.7057231158595392e-13" cType="1" res="-9.9000000000000000e+01" rms="0.0000000000000000e+00" purity="7.6496803760528564e-01" nType="1"/>
        <Node pos="r" depth="1" NCoef="0" IVar="0" Cut="5.6437194347381592e-01" cType="0" res="-9.9000000000000000e+01" rms="0.0000000000000000e+00" purity="4.9260082840919495e-01" nType="0">
          <Node pos="l" depth="2" NCoef="0" IVar="17" Cut="2.5924907684326172e+01" cType="1" res="-9.9000000000000000e+01" rms="0.0000000000000000e+00" purity="5.6256526708602905e-01" nType="0">
            <Node pos="l" depth="3" NCoef="0" IVar="-1" Cut="0.0000000000000000e+00" cType="1" res="-9.9000000000000000e+01" rms="0.0000000000000000e+00" purity="6.5407371520996094e-01" nType="1"/>
            <Node pos="r" depth="3" NCoef="0" IVar="-1" Cut="0.0000000000000000e+00" cType="1" res="-9.9000000000000000e+01" rms="0.0000000000000000e+00" purity="4.7170314192771912e-01" nType="-1"/>
          </Node>
          <Node pos="r" depth="2" NCoef="0" IVar="-1" Cut="3.7399719238281250e+01" cType="0" res="-9.9000000000000000e+01" rms="0.0000000000000000e+00" purity="4.8579302430152893e-01" nType="-1"/>
        </Node>
      </Node>
    </BinaryTree>
    <BinaryTree type="DecisionTree" boostWeight="6.0065494763562342e-02" itree="22">
      <Node pos="s" depth="0" NCoef="0" IVar="13" Cut="8.3802404785156250e+02" cType="0" res="-9.9000000000000000e+01" rms="0.0000000000000000e+00" purity="5.2206552028656006e-01" nType="0">
        <Node pos="l" depth="1" NCoef="0" IVar="-1" Cut="-1.4855431020259857e-01" cType="0" res="-9.9000000000000000e+01" rms="0.0000000000000000e+00" purity="7.8689366579055786e-01" nType="1"/>
        <Node pos="r" depth="1" NCoef="0" IVar="15" Cut="3.0507881641387939e+00" cType="1" res="-9.9000000000000000e+01" rms="0.0000000000000000e+00" purity="5.0767791271209717e-01" nType="0">
          <Node pos="l" depth="2" NCoef="0" IVar="-1" Cut="5.2536175537109375e+02" cType="0" res="-9.9000000000000000e+01" rms="0.0000000000000000e+00" purity="5.1229172945022583e-01" nType="1"/>
          <Node pos="r" depth="2" NCoef="0" IVar="-1" Cut="0.0000000000000000e+00" cType="1" res="-9.9000000000000000e+01" rms="0.0000000000000000e+00" purity="3.8124942779541016e-01" nType="-1"/>
        </Node>
      </Node>
    </BinaryTree>
    <BinaryTree type="DecisionTree" boostWeight="7.4155785214725878e-02" itree="23">
      <Node pos="s" depth="0" NCoef="0" IVar="13" Cut="5.2568273925781250e+02" cType="0" res="-9.9000000000000000e+01" rms="0.0000000000000000e+00" purity="5.1681262254714966e-01" nType="0">
        <Node pos="l" depth="1" NCoef="0" IVar="-1" Cut="3.7365074157714844e+01" cType="1" res="-9.9000000000000000e+01" rms="0.0000000000000000e+00" purity="7.1811562776565552e-01" nType="1"/>
        <Node pos="r" depth="1" NCoef="0" IVar="0" Cut="4.6422541141510010e-02" cType="1" res="-9.9000000000000000e+01" rms="0.0000000000000000e+00" purity="4.9735486507415771e-01" nType="0">
          <Node pos="l" depth="2" NCoef="0" IVar="-1" Cut="0.0000000000000000e+00" cType="1" res="-9.9000000000000000e+01" rms="0.0000000000000000e+00" purity="5.5751043558120728e-01" nType="1"/>
          <Node pos="r" depth="2" NCoef="0" IVar="7" Cut="1.8950879573822021e+00" cType="0" res="-9.9000000000000000e+01" rms="0.0000000000000000e+00" purity="4.9310418963432312e-01" nType="0">
            <Node pos="l" depth="3" NCoef="0" IVar="-1" Cut="0.0000000000000000e+00" cType="1" res="-9.9000000000000000e+01" rms="0.0000000000000000e+00" purity="5.3111499547958374e-01" nType="1"/>
            <Node pos="r" depth="3" NCoef="0" IVar="-1" Cut="0.0000000000000000e+00" cType="1" res="-9.9000000000000000e+01" rms="0.0000000000000000e+00" purity="4.8589307069778442e-01" nType="-1"/>
          </Node>
        </Node>
      </Node>
    </BinaryTree>
    <BinaryTree type="DecisionTree" boostWeight="7.1188190374913821e-02" itree="24">
      <Node pos="s" depth="0" NCoef="0" IVar="13" Cut="9.2841687011718750e+02" cType="0" res="-9.9000000000000000e+01" rms="0.0000000000000000e+00" purity="5.2225112915039062e-01" nType="0">
        <Node pos="l" depth="1" NCoef="0" IVar="-1" Cut="0.0000000000000000e+00" cType="1" res="-9.9000000000000000e+01" rms="0.0000000000000000e+00" purity="7.8841024637222290e-01" nType="1"/>
        <Node pos="r" depth="1" NCoef="0" IVar="13" Cut="1.9452235412597656e+02" cType="0" res="-9.9000000000000000e+01" rms="0.0000000000000000e+00" purity="5.1002734899520874e-01" nType="0">
          <Node pos="l" depth="2" NCoef="0" IVar="-1" Cut="2.1050630569458008e+01" cType="1" res="-9.9000000000000000e+01" rms="0.0000000000000000e+00" purity="5.6332916021347046e-01" nType="1"/>
          <Node pos="r" depth="2" NCoef="0" IVar="12" Cut="1.1166336822509766e+02" cType="0" res="-9.9000000000000000e+01" rms="0.0000000000000000e+00" purity="5.0114005804061890e-01" nType="0">
            <Node pos="l" depth="3" NCoef="0" IVar="-1" Cut="0.0000000000000000e+00" cType="1" res="-9.9000000000000000e+01" rms="0.0000000000000000e+00" purity="5.6320679187774658e-01" nType="1"/>
            <Node pos="r" depth="3" NCoef="0" IVar="-1" Cut="0.0000000000000000e+00" cType="1" res="-9.9000000000000000e+01" rms="0.0000000000000000e+00" purity="4.9050679802894592e-01" nType="-1"/>
          </Node>
        </Node>
      </Node>
    </BinaryTree>
    <BinaryTree type="DecisionTree" boostWeight="5.7091000158876221e-02" itree="25">
      <Node pos="s" depth="0" NCoef="0" IVar="13" Cut="1.1503654785156250e+03" cType="0" res="-9.9000000000000000e+01" rms="0.0000000000000000e+00" purity="5.2358049154281616e-01" nType="0">
        <Node pos="l" depth="1" NCoef="0" IVar="-1" Cut="0.0000000000000000e+00" cType="1" res="-9.9000000000000000e+01" rms="0.0000000000000000e+00" purity="8.1915301084518433e-01" nType="1"/>
        <Node pos="r" depth="1" NCoef="0" IVar="15" Cut="3.0343499183654785e+00" cType="1" res="-9.9000000000000000e+01" rms="0.0000000000000000e+00" purity="5.1451426744461060e-01" nType="0">
          <Node pos="l" depth="2" NCoef="0" IVar="-1" Cut="6.1490521240234375e+02" cType="0" res="-9.9000000000000000e+01" rms="0.0000000000000000e+00" purity="5.1764684915542603e-01" nType="1"/>
          <Node pos="r" depth="2" NCoef="0" IVar="-1" Cut="0.0000000000000000e+00" cType="1" res="-9.9000000000000000e+01" rms="0.0000000000000000e+00" purity="4.2393627762794495e-01" nType="-1"/>
        </Node>
      </Node>
    </BinaryTree>
    <BinaryTree type="DecisionTree" boostWeight="5.4690743275851335e-02" itree="26">
      <Node pos="s" depth="0" NCoef="0" IVar="13" Cut="6.8938488769531250e+02" cType="0" res="-9.9000000000000000e+01" rms="0.0000000000000000e+00" purity="5.1741766929626465e-01" nType="0">
        <Node pos="l" depth="1" NCoef="0" IVar="-1" Cut="2.7735347747802734e+01" cType="1" res="-9.9000000000000000e+01" rms="0.0000000000000000e+00" purity="6.8226939439773560e-01" nType="1"/>
        <Node pos="r" depth="1" NCoef="0" IVar="15" Cut="-2.9471397399902344e+00" cType="0" res="-9.9000000000000000e+01" rms="0.0000000000000000e+00" purity="5.0550562143325806e-01" nType="0">
          <Node pos="l" depth="2" NCoef="0" IVar="0" Cut="2.8141072392463684e-01" cType="0" res="-9.9000000000000000e+01" rms="0.0000000000000000e+00" purity="5.0799995660781860e-01" nType="0">
            <Node pos="l" depth="3" NCoef="0" IVar="-1" Cut="0.0000000000000000e+00" cType="1" res="-9.9000000000000000e+01" rms="0.0000000000000000e+00" purity="5.1274645328521729e-01" nType="1"/>
            <Node pos="r" depth="3" NCoef="0" IVar="-1" Cut="0.0000000000000000e+00" cType="1" res="-9.9000000000000000e+01" rms="0.0000000000000000e+00" purity="4.7054979205131531e-01" nType="-1"/>
          </Node>
          <Node pos="r" depth="2" NCoef="0" IVar="-1" Cut="0.0000000000000000e+00" cType="1" res="-9.9000000000000000e+01" rms="0.0000000000000000e+00" purity="4.5146620273590088e-01" nType="-1"/>
        </Node>
      </Node>
    </BinaryTree>
    <BinaryTree type="DecisionTree" boostWeight="8.0854709634951755e-02" itree="27">
      <Node pos="s" depth="0" NCoef="0" IVar="13" Cut="9.2841687011718750e+02" cType="0" res="-9.9000000000000000e+01" rms="0.0000000000000000e+00" purity="5.1511442661285400e-01" nType="0">
        <Node pos="l" depth="1" NCoef="0" IVar="-1" Cut="0.0000000000000000e+00" cType="1" res="-9.9000000000000000e+01" rms="0.0000000000000000e+00" purity="7.6301223039627075e-01" nType="1"/>
        <Node pos="r" depth="1" NCoef="0" IVar="5" Cut="-5.3526031970977783e-01" cType="0" res="-9.9000000000000000e+01" rms="0.0000000000000000e+00" purity="5.0386106967926025e-01" nType="0">
          <Node pos="l" depth="2" NCoef="0" IVar="12" Cut="8.6758331298828125e+01" cType="1" res="-9.9000000000000000e+01" rms="0.0000000000000000e+00" purity="5.3555744886398315e-01" nType="0">
            <Node pos="l" depth="3" NCoef="0" IVar="-1" Cut="0.0000000000000000e+00" cType="1" res="-9.9000000000000000e+01" rms="0.0000000000000000e+00" purity="6.0421127080917358e-01" nType="1"/>
            <Node pos="r" depth="3" NCoef="0" IVar="-1" Cut="0.0000000000000000e+00" cType="1" res="-9.9000000000000000e+01" rms="0.0000000000000000e+00" purity="4.8771575093269348e-01" nType="-1"/>
          </Node>
          <Node pos="r" depth="2" NCoef="0" IVar="12" Cut="1.2567437744140625e+02" cType="0" res="-9.9000000000000000e+01" rms="0.0000000000000000e+00" purity="4.9341690540313721e-01" nType="0">
            <Node pos="l" depth="3" NCoef="0" IVar="-1" Cut="0.0000000000000000e+00" cType="1" res="-9.9000000000000000e+01" rms="0.0000000000000000e+00" purity="6.0235500335693359e-01" nType="1"/>
            <Node pos="r" depth="3" NCoef="0" IVar="-1" Cut="0.0000000000000000e+00" cType="1" res="-9.9000000000000000e+01" rms="0.0000000000000000e+00" purity="4.8347350955009460e-01" nType="-1"/>
          </Node>
        </Node>
      </Node>
    </BinaryTree>
    <BinaryTree type="DecisionTree" boostWeight="6.1736354213562425e-02" itree="28">
      <Node pos="s" depth="0" NCoef="0" IVar="13" Cut="1.1503654785156250e+03" cType="0" res="-9.9000000000000000e+01" rms="0.0000000000000000e+00" purity="5.2478414773941040e-01" nType="0">
        <Node pos="l" depth="1" NCoef="0" IVar="-1" Cut="0.0000000000000000e+00" cType="1" res="-9.9000000000000000e+01" rms="0.0000000000000000e+00" purity="7.9799032211303711e-01" nType="1"/>
        <Node pos="r" depth="1" NCoef="0" IVar="0" Cut="7.1032845973968506e-01" cType="0" res="-9.9000000000000000e+01" rms="0.0000000000000000e+00" purity="5.1638931035995483e-01" nType="0">
          <Node pos="l" depth="2" NCoef="0" IVar="17" Cut="2.8616458892822266e+01" cType="1" res="-9.9000000000000000e+01" rms="0.0000000000000000e+00" purity="5.6534636020660400e-01" nType="0">
            <Node pos="l" depth="3" NCoef="0" IVar="-1" Cut="0.0000000000000000e+00" cType="1" res="-9.9000000000000000e+01" rms="0.0000000000000000e+00" purity="6.4337408542633057e-01" nType="1"/>
            <Node pos="r" depth="3" NCoef="0" IVar="-1" Cut="0.0000000000000000e+00" cType="1" res="-9.9000000000000000e+01" rms="0.0000000000000000e+00" purity="4.6718254685401917e-01" nType="-1"/>
          </Node>
          <Node pos="r" depth="2" NCoef="0" IVar="15" Cut="3.1573612689971924e+00" cType="1" res="-9.9000000000000000e+01" rms="0.0000000000000000e+00" purity="5.1220893859863281e-01" nType="0">
            <Node pos="l" depth="3" NCoef="0" IVar="-1" Cut="0.0000000000000000e+00" cType="1" res="-9.9000000000000000e+01" rms="0.0000000000000000e+00" purity="5.1479822397232056e-01" nType="1"/>
            <Node pos="r" depth="3" NCoef="0" IVar="-1" Cut="0.0000000000000000e+00" cType="1" res="-9.9000000000000000e+01" rms="0.0000000000000000e+00" purity="4.2945104837417603e-01" nType="-1"/>
          </Node>
        </Node>
      </Node>
    </BinaryTree>
    <BinaryTree type="DecisionTree" boostWeight="5.6642801762992752e-02" itree="29">
      <Node pos="s" depth="0" NCoef="0" IVar="13" Cut="9.2841687011718750e+02" cType="0" res="-9.9000000000000000e+01" rms="0.0000000000000000e+00" purity="5.0958389043807983e-01" nType="0">
        <Node pos="l" depth="1" NCoef="0" IVar="-1" Cut="0.0000000000000000e+00" cType="1" res="-9.9000000000000000e+01" rms="0.0000000000000000e+00" purity="7.6844966411590576e-01" nType="1"/>
        <Node pos="r" depth="1" NCoef="0" IVar="13" Cut="5.3696508789062500e+02" cType="0" res="-9.9000000000000000e+01" rms="0.0000000000000000e+00" purity="4.9833607673645020e-01" nType="0">
          <Node pos="l" depth="2" NCoef="0" IVar="-1" Cut="0.0000000000000000e+00" cType="1" res="-9.9000000000000000e+01" rms="0.0000000000000000e+00" purity="5.7813596725463867e-01" nType="1"/>
          <Node pos="r" depth="2" NCoef="0" IVar="16" Cut="1.9445167779922485e+00" cType="0" res="-9.9000000000000000e+01" rms="0.0000000000000000e+00" purity="4.9474120140075684e-01" nType="0">
            <Node pos="l" depth="3" NCoef="0" IVar="-1" Cut="0.0000000000000000e+00" cType="1" res="-9.9000000000000000e+01" rms="0.0000000000000000e+00" purity="5.2463608980178833e-01" nType="1"/>
            <Node pos="r" depth="3" NCoef="0" IVar="-1" Cut="0.0000000000000000e+00" cType="1" res="-9.9000000000000000e+01" rms="0.0000000000000000e+00" purity="4.8724153637886047e-01" nType="-1"/>
          </Node>
        </Node>
      </Node>
    </BinaryTree>
    <BinaryTree type="DecisionTree" boostWeight="4.9372091350660223e-02" itree="30">
      <Node pos="s" depth="0" NCoef="0" IVar="13" Cut="7.2557537841796875e+02" cType="0" res="-9.9000000000000000e+01" rms="0.0000000000000000e+00" purity="5.0972676277160645e-01" nType="0">
        <Node pos="l" depth="1" NCoef="0" IVar="-1" Cut="5.2814317589439108e-13" cType="1" res="-9.9000000000000000e+01" rms="0.0000000000000000e+00" purity="7.2140586376190186e-01" nType="1"/>
        <Node pos="r" depth="1" NCoef="0" IVar="11" Cut="5.5484825134277344e+01" cType="0" res="-9.9000000000000000e+01" rms="0.0000000000000000e+00" purity="4.9673718214035034e-01" nType="0">
          <Node pos="l" depth="2" NCoef="0" IVar="-1" Cut="6.0749687194824219e+01" cType="0" res="-9.9000000000000000e+01" rms="0.0000000000000000e+00" purity="5.4757755994796753e-01" nType="1"/>
          <Node pos="r" depth="2" NCoef="0" IVar="-1" Cut="-2.8447017669677734e+00" cType="0" res="-9.9000000000000000e+01" rms="0.0000000000000000e+00" purity="4.9121007323265076e-01" nType="-1"/>
        </Node>
      </Node>
    </BinaryTree>
    <BinaryTree type="DecisionTree" boostWeight="6.7197010391495324e-02" itree="31">
      <Node pos="s" depth="0" NCoef="0" IVar="13" Cut="8.0187097167968750e+02" cType="0" res="-9.9000000000000000e+01" rms="0.0000000000000000e+00" purity="5.2464061975479126e-01" nType="0">
        <Node pos="l" depth="1" NCoef="0" IVar="-1" Cut="0.0000000000000000e+00" cType="1" res="-9.9000000000000000e+01" rms="0.0000000000000000e+00" purity="7.5058871507644653e-01" nType="1"/>
        <Node pos="r" depth="1" NCoef="0" IVar="15" Cut="-3.1334733963012695e+00" cType="0" res="-9.9000000000000000e+01" rms="0.0000000000000000e+00" purity="5.1305115222930908e-01" nType="0">
          <Node pos="l" depth="2" NCoef="0" IVar="1" Cut="7.9901528358459473e-01" cType="1" res="-9.9000000000000000e+01" rms="0.0000000000000000e+00" purity="5.1683026552200317e-01" nType="0">
            <Node pos="l" depth="3" NCoef="0" IVar="-1" Cut="0.0000000000000000e+00" cType="1" res="-9.9000000000000000e+01" rms="0.0000000000000000e+00" purity="5.2275317907333374e-01" nType="1"/>
            <Node pos="r" depth="3" NCoef="0" IVar="-1" Cut="0.0000000000000000e+00" cType="1" res="-9.9000000000000000e+01" rms="0.0000000000000000e+00" purity="4.9249708652496338e-01" nType="-1"/>
          </Node>
          <Node pos="r" depth="2" NCoef="0" IVar="-1" Cut="0.0000000000000000e+00" cType="1" res="-9.9000000000000000e+01" rms="0.0000000000000000e+00" purity="3.9460167288780212e-01" nType="-1"/>
        </Node>
      </Node>
    </BinaryTree>
    <BinaryTree type="DecisionTree" boostWeight="5.7009599879155028e-02" itree="32">
      <Node pos="s" depth="0" NCoef="0" IVar="13" Cut="9.2841687011718750e+02" cType="0" res="-9.9000000000000000e+01" rms="0.0000000000000000e+00" purity="5.1212882995605469e-01" nType="0">
        <Node pos="l" depth="1" NCoef="0" IVar="-1" Cut="0.0000000000000000e+00" cType="1" res="-9.9000000000000000e+01" rms="0.0000000000000000e+00" purity="7.6105290651321411e-01" nType="1"/>
        <Node pos="r" depth="1" NCoef="0" IVar="15" Cut="-2.4672553539276123e+00" cType="0" res="-9.9000000000000000e+01" rms="0.0000000000000000e+00" purity="5.0188398361206055e-01" nType="0">
          <Node pos="l" depth="2" NCoef="0" IVar="1" Cut="7.9901528358459473e-01" cType="1" res="-9.9000000000000000e+01" rms="0.0000000000000000e+00" purity="5.0625985860824585e-01" nType="0">
            <Node pos="l" depth="3" NCoef="0" IVar="-1" Cut="0.0000000000000000e+00" cType="1" res="-9.9000000000000000e+01" rms="0.0000000000000000e+00" purity="5.1335811614990234e-01" nType="1"/>
            <Node pos="r" depth="3" NCoef="0" IVar="-1" Cut="0.0000000000000000e+00" cType="1" res="-9.9000000000000000e+01" rms="0.0000000000000000e+00" purity="4.7896572947502136e-01" nType="-1"/>
          </Node>
          <Node pos="r" depth="2" NCoef="0" IVar="12" Cut="1.9989452362060547e+01" cType="0" res="-9.9000000000000000e+01" rms="0.0000000000000000e+00" purity="4.5117291808128357e-01" nType="0">
            <Node pos="l" depth="3" NCoef="0" IVar="-1" Cut="0.0000000000000000e+00" cType="1" res="-9.9000000000000000e+01" rms="0.0000000000000000e+00" purity="5.1639807224273682e-01" nType="1"/>
            <Node pos="r" depth="3" NCoef="0" IVar="-1" Cut="0.0000000000000000e+00" cType="1" res="-9.9000000000000000e+01" rms="0.0000000000000000e+00" purity="3.8935041427612305e-01" nType="-1"/>
          </Node>
        </Node>
      </Node>
    </BinaryTree>
    <BinaryTree type="DecisionTree" boostWeight="6.5242466823201617e-02" itree="33">
      <Node pos="s" depth="0" NCoef="0" IVar="13" Cut="8.3802404785156250e+02" cType="0" res="-9.9000000000000000e+01" rms="0.0000000000000000e+00" purity="5.0737690925598145e-01" nType="0">
        <Node pos="l" depth="1" NCoef="0" IVar="-1" Cut="0.0000000000000000e+00" cType="1" res="-9.9000000000000000e+01" rms="0.0000000000000000e+00" purity="7.1526300907135010e-01" nType="1"/>
        <Node pos="r" depth="1" NCoef="0" IVar="0" Cut="2.3556721210479736e-01" cType="0" res="-9.9000000000000000e+01" rms="0.0000000000000000e+00" purity="4.9704909324645996e-01" nType="0">
          <Node pos="l" depth="2" NCoef="0" IVar="12" Cut="4.2119613647460938e+01" cType="0" res="-9.9000000000000000e+01" rms="0.0000000000000000e+00" purity="5.0181865692138672e-01" nType="0">
            <Node pos="l" depth="3" NCoef="0" IVar="-1" Cut="0.0000000000000000e+00" cType="1" res="-9.9000000000000000e+01" rms="0.0000000000000000e+00" purity="5.1540476083755493e-01" nType="1"/>
            <Node pos="r" depth="3" NCoef="0" IVar="-1" Cut="0.0000000000000000e+00" cType="1" res="-9.9000000000000000e+01" rms="0.0000000000000000e+00" purity="4.8232498764991760e-01" nType="-1"/>
          </Node>
          <Node pos="r" depth="2" NCoef="0" IVar="0" Cut="2.2417591884732246e-02" cType="1" res="-9.9000000000000000e+01" rms="0.0000000000000000e+00" purity="4.5483019948005676e-01" nType="0">
            <Node pos="l" depth="3" NCoef="0" IVar="-1" Cut="0.0000000000000000e+00" cType="1" res="-9.9000000000000000e+01" rms="0.0000000000000000e+00" purity="5.4278779029846191e-01" nType="1"/>
            <Node pos="r" depth="3" NCoef="0" IVar="-1" Cut="0.0000000000000000e+00" cType="1" res="-9.9000000000000000e+01" rms="0.0000000000000000e+00" purity="3.7113445997238159e-01" nType="-1"/>
          </Node>
        </Node>
      </Node>
    </BinaryTree>
    <BinaryTree type="DecisionTree" boostWeight="4.2721277519557087e-02" itree="34">
      <Node pos="s" depth="0" NCoef="0" IVar="13" Cut="1.1503654785156250e+03" cType="0" res="-9.9000000000000000e+01" rms="0.0000000000000000e+00" purity="5.1560086011886597e-01" nType="0">
        <Node pos="l" depth="1" NCoef="0" IVar="-1" Cut="0.0000000000000000e+00" cType="1" res="-9.9000000000000000e+01" rms="0.0000000000000000e+00" purity="8.0932444334030151e-01" nType="1"/>
        <Node pos="r" depth="1" NCoef="0" IVar="13" Cut="4.9592098999023438e+02" cType="0" res="-9.9000000000000000e+01" rms="0.0000000000000000e+00" purity="5.0730961561203003e-01" nType="0">
          <Node pos="l" depth="2" NCoef="0" IVar="17" Cut="2.5240842819213867e+01" cType="1" res="-9.9000000000000000e+01" rms="0.0000000000000000e+00" purity="5.6101065874099731e-01" nType="0">
            <Node pos="l" depth="3" NCoef="0" IVar="-1" Cut="0.0000000000000000e+00" cType="1" res="-9.9000000000000000e+01" rms="0.0000000000000000e+00" purity="6.8813031911849976e-01" nType="1"/>
            <Node pos="r" depth="3" NCoef="0" IVar="-1" Cut="0.0000000000000000e+00" cType="1" res="-9.9000000000000000e+01" rms="0.0000000000000000e+00" purity="4.7158950567245483e-01" nType="-1"/>
          </Node>
          <Node pos="r" depth="2" NCoef="0" IVar="7" Cut="1.9702596664428711e+00" cType="0" res="-9.9000000000000000e+01" rms="0.0000000000000000e+00" purity="5.0365406274795532e-01" nType="0">
            <Node pos="l" depth="3" NCoef="0" IVar="-1" Cut="0.0000000000000000e+00" cType="1" res="-9.9000000000000000e+01" rms="0.0000000000000000e+00" purity="5.3943818807601929e-01" nType="1"/>
            <Node pos="r" depth="3" NCoef="0" IVar="-1" Cut="0.0000000000000000e+00" cType="1" res="-9.9000000000000000e+01" rms="0.0000000000000000e+00" purity="4.9764013290405273e-01" nType="-1"/>
          </Node>
        </Node>
      </Node>
    </BinaryTree>
    <BinaryTree type="DecisionTree" boostWeight="4.5698326000412043e-02" itree="35">
      <Node pos="s" depth="0" NCoef="0" IVar="13" Cut="9.2841687011718750e+02" cType="0" res="-9.9000000000000000e+01" rms="0.0000000000000000e+00" purity="5.1060616970062256e-01" nType="0">
        <Node pos="l" depth="1" NCoef="0" IVar="-1" Cut="0.0000000000000000e+00" cType="1" res="-9.9000000000000000e+01" rms="0.0000000000000000e+00" purity="7.1305108070373535e-01" nType="1"/>
        <Node pos="r" depth="1" NCoef="0" IVar="13" Cut="6.3475671386718750e+02" cType="0" res="-9.9000000000000000e+01" rms="0.0000000000000000e+00" purity="5.0187730789184570e-01" nType="0">
          <Node pos="l" depth="2" NCoef="0" IVar="-1" Cut="0.0000000000000000e+00" cType="1" res="-9.9000000000000000e+01" rms="0.0000000000000000e+00" purity="5.9879183769226074e-01" nType="1"/>
          <Node pos="r" depth="2" NCoef="0" IVar="12" Cut="7.3454650878906250e+01" cType="1" res="-9.9000000000000000e+01" rms="0.0000000000000000e+00" purity="4.9912959337234497e-01" nType="0">
            <Node pos="l" depth="3" NCoef="0" IVar="-1" Cut="0.0000000000000000e+00" cType="1" res="-9.9000000000000000e+01" rms="0.0000000000000000e+00" purity="5.0878572463989258e-01" nType="1"/>
            <Node pos="r" depth="3" NCoef="0" IVar="-1" Cut="0.0000000000000000e+00" cType="1" res="-9.9000000000000000e+01" rms="0.0000000000000000e+00" purity="4.8140302300453186e-01" nType="-1"/>
          </Node>
        </Node>
      </Node>
    </BinaryTree>
    <BinaryTree type="DecisionTree" boostWeight="3.7963925484923243e-02" itree="36">
      <Node pos="s" depth="0" NCoef="0" IVar="13" Cut="1.0190145263671875e+03" cType="0" res="-9.9000000000000000e+01" rms="0.0000000000000000e+00" purity="5.1111078262329102e-01" nType="0">
        <Node pos="l" depth="1" NCoef="0" IVar="-1" Cut="0.0000000000000000e+00" cType="1" res="-9.9000000000000000e+01" rms="0.0000000000000000e+00" purity="7.3550271987915039e-01" nType="1"/>
        <Node pos="r" depth="1" NCoef="0" IVar="13" Cut="6.4622644042968750e+02" cType="0" res="-9.9000000000000000e+01" rms="0.0000000000000000e+00" purity="5.0317788124084473e-01" nType="0">
          <Node pos="l" depth="2" NCoef="0" IVar="-1" Cut="0.0000000000000000e+00" cType="1" res="-9.9000000000000000e+01" rms="0.0000000000000000e+00" purity="5.8889383077621460e-01" nType="1"/>
          <Node pos="r" depth="2" NCoef="0" IVar="11" Cut="3.3925945281982422e+01" cType="0" res="-9.9000000000000000e+01" rms="0.0000000000000000e+00" purity="5.0034081935882568e-01" nType="0">
            <Node pos="l" depth="3" NCoef="0" IVar="-1" Cut="0.0000000000000000e+00" cType="1" res="-9.9000000000000000e+01" rms="0.0000000000000000e+00" purity="5.1246988773345947e-01" nType="1"/>
            <Node pos="r" depth="3" NCoef="0" IVar="-1" Cut="0.0000000000000000e+00" cType="1" res="-9.9000000000000000e+01" rms="0.0000000000000000e+00" purity="4.9338337779045105e-01" nType="-1"/>
          </Node>
        </Node>
      </Node>
    </BinaryTree>
    <BinaryTree type="DecisionTree" boostWeight="4.7250961779962963e-02" itree="37">
      <Node pos="s" depth="0" NCoef="0" IVar="13" Cut="1.1021612548828125e+03" cType="0" res="-9.9000000000000000e+01" rms="0.0000000000000000e+00" purity="5.0876790285110474e-01" nType="0">
        <Node pos="l" depth="1" NCoef="0" IVar="-1" Cut="0.0000000000000000e+00" cType="1" res="-9.9000000000000000e+01" rms="0.0000000000000000e+00" purity="7.3062545061111450e-01" nType="1"/>
        <Node pos="r" depth="1" NCoef="0" IVar="15" Cut="2.7378242015838623e+00" cType="1" res="-9.9000000000000000e+01" rms="0.0000000000000000e+00" purity="5.0186604261398315e-01" nType="0">
          <Node pos="l" depth="2" NCoef="0" IVar="17" Cut="2.7978244781494141e+01" cType="1" res="-9.9000000000000000e+01" rms="0.0000000000000000e+00" purity="5.0576257705688477e-01" nType="0">
            <Node pos="l" depth="3" NCoef="0" IVar="-1" Cut="0.0000000000000000e+00" cType="1" res="-9.9000000000000000e+01" rms="0.0000000000000000e+00" purity="5.1176655292510986e-01" nType="1"/>
            <Node pos="r" depth="3" NCoef="0" IVar="-1" Cut="0.0000000000000000e+00" cType="1" res="-9.9000000000000000e+01" rms="0.0000000000000000e+00" purity="4.7149488329887390e-01" nType="-1"/>
          </Node>
          <Node pos="r" depth="2" NCoef="0" IVar="-1" Cut="0.0000000000000000e+00" cType="1" res="-9.9000000000000000e+01" rms="0.0000000000000000e+00" purity="4.2701423168182373e-01" nType="-1"/>
        </Node>
      </Node>
    </BinaryTree>
    <BinaryTree type="DecisionTree" boostWeight="3.2064286730104002e-02" itree="38">
      <Node pos="s" depth="0" NCoef="0" IVar="13" Cut="9.2841687011718750e+02" cType="0" res="-9.9000000000000000e+01" rms="0.0000000000000000e+00" purity="5.1149433851242065e-01" nType="0">
        <Node pos="l" depth="1" NCoef="0" IVar="-1" Cut="0.0000000000000000e+00" cType="1" res="-9.9000000000000000e+01" rms="0.0000000000000000e+00" purity="7.1535331010818481e-01" nType="1"/>
        <Node pos="r" depth="1" NCoef="0" IVar="13" Cut="5.8471881103515625e+02" cType="0" res="-9.9000000000000000e+01" rms="0.0000000000000000e+00" purity="5.0302296876907349e-01" nType="0">
          <Node pos="l" depth="2" NCoef="0" IVar="-1" Cut="0.0000000000000000e+00" cType="1" res="-9.9000000000000000e+01" rms="0.0000000000000000e+00" purity="5.7936364412307739e-01" nType="1"/>
          <Node pos="r" depth="2" NCoef="0" IVar="16" Cut="-2.8421986103057861e+00" cType="0" res="-9.9000000000000000e+01" rms="0.0000000000000000e+00" purity="5.0033420324325562e-01" nType="0">
            <Node pos="l" depth="3" NCoef="0" IVar="-1" Cut="0.0000000000000000e+00" cType="1" res="-9.9000000000000000e+01" rms="0.0000000000000000e+00" purity="5.0292289257049561e-01" nType="1"/>
            <Node pos="r" depth="3" NCoef="0" IVar="-1" Cut="0.0000000000000000e+00" cType="1" res="-9.9000000000000000e+01" rms="0.0000000000000000e+00" purity="4.5082989335060120e-01" nType="-1"/>
          </Node>
        </Node>
      </Node>
    </BinaryTree>
    <BinaryTree type="DecisionTree" boostWeight="5.5454771423319303e-02" itree="39">
      <Node pos="s" depth="0" NCoef="0" IVar="13" Cut="1.1021612548828125e+03" cType="0" res="-9.9000000000000000e+01" rms="0.0000000000000000e+00" purity="5.0795316696166992e-01" nType="0">
        <Node pos="l" depth="1" NCoef="0" IVar="-1" Cut="0.0000000000000000e+00" cType="1" res="-9.9000000000000000e+01" rms="0.0000000000000000e+00" purity="7.5139230489730835e-01" nType="1"/>
        <Node pos="r" depth="1" NCoef="0" IVar="15" Cut="6.1786371469497681e-01" cType="0" res="-9.9000000000000000e+01" rms="0.0000000000000000e+00" purity="5.0069749355316162e-01" nType="0">
          <Node pos="l" depth="2" NCoef="0" IVar="16" Cut="-1.9446349143981934e+00" cType="0" res="-9.9000000000000000e+01" rms="0.0000000000000000e+00" purity="5.2485483884811401e-01" nType="0">
            <Node pos="l" depth="3" NCoef="0" IVar="-1" Cut="0.0000000000000000e+00" cType="1" res="-9.9000000000000000e+01" rms="0.0000000000000000e+00" purity="5.3262937068939209e-01" nType="1"/>
            <Node pos="r" depth="3" NCoef="0" IVar="-1" Cut="0.0000000000000000e+00" cType="1" res="-9.9000000000000000e+01" rms="0.0000000000000000e+00" purity="4.8973506689071655e-01" nType="-1"/>
          </Node>
          <Node pos="r" depth="2" NCoef="0" IVar="-1" Cut="1.0465224981307983e+00" cType="1" res="-9.9000000000000000e+01" rms="0.0000000000000000e+00" purity="4.8413914442062378e-01" nType="-1"/>
        </Node>
      </Node>
    </BinaryTree>
    <BinaryTree type="DecisionTree" boostWeight="4.2067605227907152e-02" itree="40">
      <Node pos="s" depth="0" NCoef="0" IVar="13" Cut="1.1503654785156250e+03" cType="0" res="-9.9000000000000000e+01" rms="0.0000000000000000e+00" purity="5.0638139247894287e-01" nType="0">
        <Node pos="l" depth="1" NCoef="0" IVar="-1" Cut="0.0000000000000000e+00" cType="1" res="-9.9000000000000000e+01" rms="0.0000000000000000e+00" purity="7.5488251447677612e-01" nType="1"/>
        <Node pos="r" depth="1" NCoef="0" IVar="13" Cut="7.3319091796875000e+02" cType="0" res="-9.9000000000000000e+01" rms="0.0000000000000000e+00" purity="4.9945771694183350e-01" nType="0">
          <Node pos="l" depth="2" NCoef="0" IVar="-1" Cut="0.0000000000000000e+00" cType="1" res="-9.9000000000000000e+01" rms="0.0000000000000000e+00" purity="6.0253328084945679e-01" nType="1"/>
          <Node pos="r" depth="2" NCoef="0" IVar="16" Cut="-1.4953652024269104e-01" cType="1" res="-9.9000000000000000e+01" rms="0.0000000000000000e+00" purity="4.9638697504997253e-01" nType="0">
            <Node pos="l" depth="3" NCoef="0" IVar="-1" Cut="0.0000000000000000e+00" cType="1" res="-9.9000000000000000e+01" rms="0.0000000000000000e+00" purity="5.0862795114517212e-01" nType="1"/>
            <Node pos="r" depth="3" NCoef="0" IVar="-1" Cut="0.0000000000000000e+00" cType="1" res="-9.9000000000000000e+01" rms="0.0000000000000000e+00" purity="4.8512089252471924e-01" nType="-1"/>
          </Node>
        </Node>
      </Node>
    </BinaryTree>
    <BinaryTree type="DecisionTree" boostWeight="4.6466058370720653e-02" itree="41">
      <Node pos="s" depth="0" NCoef="0" IVar="13" Cut="1.1503654785156250e+03" cType="0" res="-9.9000000000000000e+01" rms="0.0000000000000000e+00" purity="5.0506550073623657e-01" nType="0">
        <Node pos="l" depth="1" NCoef="0" IVar="-1" Cut="0.0000000000000000e+00" cType="1" res="-9.9000000000000000e+01" rms="0.0000000000000000e+00" purity="7.6018333435058594e-01" nType="1"/>
        <Node pos="r" depth="1" NCoef="0" IVar="13" Cut="6.1487939453125000e+02" cType="0" res="-9.9000000000000000e+01" rms="0.0000000000000000e+00" purity="4.9821689724922180e-01" nType="0">
          <Node pos="l" depth="2" NCoef="0" IVar="-1" Cut="0.0000000000000000e+00" cType="1" res="-9.9000000000000000e+01" rms="0.0000000000000000e+00" purity="5.7192105054855347e-01" nType="1"/>
          <Node pos="r" depth="2" NCoef="0" IVar="11" Cut="4.7589710235595703e+01" cType="0" res="-9.9000000000000000e+01" rms="0.0000000000000000e+00" purity="4.9487715959548950e-01" nType="0">
            <Node pos="l" depth="3" NCoef="0" IVar="-1" Cut="0.0000000000000000e+00" cType="1" res="-9.9000000000000000e+01" rms="0.0000000000000000e+00" purity="5.2814131975173950e-01" nType="1"/>
            <Node pos="r" depth="3" NCoef="0" IVar="-1" Cut="0.0000000000000000e+00" cType="1" res="-9.9000000000000000e+01" rms="0.0000000000000000e+00" purity="4.8834607005119324e-01" nType="-1"/>
          </Node>
        </Node>
      </Node>
    </BinaryTree>
    <BinaryTree type="DecisionTree" boostWeight="3.9043963190250844e-02" itree="42">
      <Node pos="s" depth="0" NCoef="0" IVar="13" Cut="9.2841687011718750e+02" cType="0" res="-9.9000000000000000e+01" rms="0.0000000000000000e+00" purity="5.1348352432250977e-01" nType="0">
        <Node pos="l" depth="1" NCoef="0" IVar="-1" Cut="0.0000000000000000e+00" cType="1" res="-9.9000000000000000e+01" rms="0.0000000000000000e+00" purity="7.2040992975234985e-01" nType="1"/>
        <Node pos="r" depth="1" NCoef="0" IVar="13" Cut="5.3696508789062500e+02" cType="0" res="-9.9000000000000000e+01" rms="0.0000000000000000e+00" purity="5.0557553768157959e-01" nType="0">
          <Node pos="l" depth="2" NCoef="0" IVar="-1" Cut="0.0000000000000000e+00" cType="1" res="-9.9000000000000000e+01" rms="0.0000000000000000e+00" purity="5.7816797494888306e-01" nType="1"/>
          <Node pos="r" depth="2" NCoef="0" IVar="0" Cut="3.7003305554389954e-01" cType="0" res="-9.9000000000000000e+01" rms="0.0000000000000000e+00" purity="5.0247001647949219e-01" nType="0">
            <Node pos="l" depth="3" NCoef="0" IVar="-1" Cut="0.0000000000000000e+00" cType="1" res="-9.9000000000000000e+01" rms="0.0000000000000000e+00" purity="5.0651687383651733e-01" nType="1"/>
            <Node pos="r" depth="3" NCoef="0" IVar="-1" Cut="0.0000000000000000e+00" cType="1" res="-9.9000000000000000e+01" rms="0.0000000000000000e+00" purity="4.7285726666450500e-01" nType="-1"/>
          </Node>
        </Node>
      </Node>
    </BinaryTree>
    <BinaryTree type="DecisionTree" boostWeight="4.4244812480003268e-02" itree="43">
      <Node pos="s" depth="0" NCoef="0" IVar="13" Cut="1.0003923950195312e+03" cType="0" res="-9.9000000000000000e+01" rms="0.0000000000000000e+00" purity="5.0091058015823364e-01" nType="0">
        <Node pos="l" depth="1" NCoef="0" IVar="-1" Cut="0.0000000000000000e+00" cType="1" res="-9.9000000000000000e+01" rms="0.0000000000000000e+00" purity="7.0483791828155518e-01" nType="1"/>
        <Node pos="r" depth="1" NCoef="0" IVar="1" Cut="9.4022107124328613e-01" cType="0" res="-9.9000000000000000e+01" rms="0.0000000000000000e+00" purity="4.9376380443572998e-01" nType="0">
          <Node pos="l" depth="2" NCoef="0" IVar="-1" Cut="0.0000000000000000e+00" cType="1" res="-9.9000000000000000e+01" rms="0.0000000000000000e+00" purity="5.6356757879257202e-01" nType="1"/>
          <Node pos="r" depth="2" NCoef="0" IVar="13" Cut="5.8156335449218750e+02" cType="0" res="-9.9000000000000000e+01" rms="0.0000000000000000e+00" purity="4.9122351408004761e-01" nType="0">
            <Node pos="l" depth="3" NCoef="0" IVar="-1" Cut="0.0000000000000000e+00" cType="1" res="-9.9000000000000000e+01" rms="0.0000000000000000e+00" purity="5.6163281202316284e-01" nType="1"/>
            <Node pos="r" depth="3" NCoef="0" IVar="-1" Cut="0.0000000000000000e+00" cType="1" res="-9.9000000000000000e+01" rms="0.0000000000000000e+00" purity="4.8813134431838989e-01" nType="-1"/>
          </Node>
        </Node>
      </Node>
    </BinaryTree>
    <BinaryTree type="DecisionTree" boostWeight="4.6958852488242428e-02" itree="44">
      <Node pos="s" depth="0" NCoef="0" IVar="13" Cut="1.0004338989257812e+03" cType="0" res="-9.9000000000000000e+01" rms="0.0000000000000000e+00" purity="5.0851982831954956e-01" nType="0">
        <Node pos="l" depth="1" NCoef="0" IVar="-1" Cut="0.0000000000000000e+00" cType="1" res="-9.9000000000000000e+01" rms="0.0000000000000000e+00" purity="7.2296315431594849e-01" nType="1"/>
        <Node pos="r" depth="1" NCoef="0" IVar="13" Cut="4.7674633789062500e+02" cType="0" res="-9.9000000000000000e+01" rms="0.0000000000000000e+00" purity="5.0103420019149780e-01" nType="0">
          <Node pos="l" depth="2" NCoef="0" IVar="17" Cut="3.1183641433715820e+01" cType="1" res="-9.9000000000000000e+01" rms="0.0000000000000000e+00" purity="5.7113063335418701e-01" nType="0">
            <Node pos="l" depth="3" NCoef="0" IVar="-1" Cut="0.0000000000000000e+00" cType="1" res="-9.9000000000000000e+01" rms="0.0000000000000000e+00" purity="6.8734234571456909e-01" nType="1"/>
            <Node pos="r" depth="3" NCoef="0" IVar="-1" Cut="0.0000000000000000e+00" cType="1" res="-9.9000000000000000e+01" rms="0.0000000000000000e+00" purity="4.5589482784271240e-01" nType="-1"/>
          </Node>
          <Node pos="r" depth="2" NCoef="0" IVar="0" Cut="4.5608215034008026e-02" cType="1" res="-9.9000000000000000e+01" rms="0.0000000000000000e+00" purity="4.9663257598876953e-01" nType="0">
            <Node pos="l" depth="3" NCoef="0" IVar="-1" Cut="0.0000000000000000e+00" cType="1" res="-9.9000000000000000e+01" rms="0.0000000000000000e+00" purity="5.5202460289001465e-01" nType="1"/>
            <Node pos="r" depth="3" NCoef="0" IVar="-1" Cut="0.0000000000000000e+00" cType="1" res="-9.9000000000000000e+01" rms="0.0000000000000000e+00" purity="4.9268680810928345e-01" nType="-1"/>
          </Node>
        </Node>
      </Node>
    </BinaryTree>
    <BinaryTree type="DecisionTree" boostWeight="6.2865503903522760e-02" itree="45">
      <Node pos="s" depth="0" NCoef="0" IVar="0" Cut="7.1424347162246704e-01" cType="0" res="-9.9000000000000000e+01" rms="0.0000000000000000e+00" purity="5.1476001739501953e-01" nType="0">
        <Node pos="l" depth="1" NCoef="0" IVar="-1" Cut="3.0696573257446289e+01" cType="1" res="-9.9000000000000000e+01" rms="0.0000000000000000e+00" purity="6.0032981634140015e-01" nType="1"/>
        <Node pos="r" depth="1" NCoef="0" IVar="0" Cut="3.0608549714088440e-01" cType="0" res="-9.9000000000000000e+01" rms="0.0000000000000000e+00" purity="5.0585502386093140e-01" nType="0">
          <Node pos="l" depth="2" NCoef="0" IVar="17" Cut="2.3563476562500000e+01" cType="1" res="-9.9000000000000000e+01" rms="0.0000000000000000e+00" purity="5.1020807027816772e-01" nType="0">
            <Node pos="l" depth="3" NCoef="0" IVar="-1" Cut="0.0000000000000000e+00" cType="1" res="-9.9000000000000000e+01" rms="0.0000000000000000e+00" purity="5.1392477750778198e-01" nType="1"/>
            <Node pos="r" depth="3" NCoef="0" IVar="-1" Cut="0.0000000000000000e+00" cType="1" res="-9.9000000000000000e+01" rms="0.0000000000000000e+00" purity="4.4274246692657471e-01" nType="-1"/>
          </Node>
          <Node pos="r" depth="2" NCoef="0" IVar="0" Cut="1.4555910602211952e-02" cType="1" res="-9.9000000000000000e+01" rms="0.0000000000000000e+00" purity="4.7242084145545959e-01" nType="0">
            <Node pos="l" depth="3" NCoef="0" IVar="-1" Cut="0.0000000000000000e+00" cType="1" res="-9.9000000000000000e+01" rms="0.0000000000000000e+00" purity="5.7695835828781128e-01" nType="1"/>
            <Node pos="r" depth="3" NCoef="0" IVar="-1" Cut="0.0000000000000000e+00" cType="1" res="-9.9000000000000000e+01" rms="0.0000000000000000e+00" purity="4.0865886211395264e-01" nType="-1"/>
          </Node>
        </Node>
      </Node>
    </BinaryTree>
    <BinaryTree type="DecisionTree" boostWeight="2.5274304678036475e-02" itree="46">
      <Node pos="s" depth="0" NCoef="0" IVar="13" Cut="1.1503654785156250e+03" cType="0" res="-9.9000000000000000e+01" rms="0.0000000000000000e+00" purity="5.1217049360275269e-01" nType="0">
        <Node pos="l" depth="1" NCoef="0" IVar="-1" Cut="0.0000000000000000e+00" cType="1" res="-9.9000000000000000e+01" rms="0.0000000000000000e+00" purity="7.2069245576858521e-01" nType="1"/>
        <Node pos="r" depth="1" NCoef="0" IVar="13" Cut="5.5538946533203125e+02" cType="0" res="-9.9000000000000000e+01" rms="0.0000000000000000e+00" purity="5.0668984651565552e-01" nType="0">
          <Node pos="l" depth="2" NCoef="0" IVar="-1" Cut="0.0000000000000000e+00" cType="1" res="-9.9000000000000000e+01" rms="0.0000000000000000e+00" purity="5.7918274402618408e-01" nType="1"/>
          <Node pos="r" depth="2" NCoef="0" IVar="7" Cut="6.4256491661071777e+00" cType="0" res="-9.9000000000000000e+01" rms="0.0000000000000000e+00" purity="5.0282877683639526e-01" nType="0">
            <Node pos="l" depth="3" NCoef="0" IVar="-1" Cut="0.0000000000000000e+00" cType="1" res="-9.9000000000000000e+01" rms="0.0000000000000000e+00" purity="5.5814236402511597e-01" nType="1"/>
            <Node pos="r" depth="3" NCoef="0" IVar="-1" Cut="0.0000000000000000e+00" cType="1" res="-9.9000000000000000e+01" rms="0.0000000000000000e+00" purity="4.9973523616790771e-01" nType="-1"/>
          </Node>
        </Node>
      </Node>
    </BinaryTree>
    <BinaryTree type="DecisionTree" boostWeight="4.6744989352203635e-02" itree="47">
      <Node pos="s" depth="0" NCoef="0" IVar="13" Cut="1.1503654785156250e+03" cType="0" res="-9.9000000000000000e+01" rms="0.0000000000000000e+00" purity="5.1269012689590454e-01" nType="0">
        <Node pos="l" depth="1" NCoef="0" IVar="-1" Cut="0.0000000000000000e+00" cType="1" res="-9.9000000000000000e+01" rms="0.0000000000000000e+00" purity="7.1756905317306519e-01" nType="1"/>
        <Node pos="r" depth="1" NCoef="0" IVar="15" Cut="2.2720259428024292e-01" cType="1" res="-9.9000000000000000e+01" rms="0.0000000000000000e+00" purity="5.0727349519729614e-01" nType="0">
          <Node pos="l" depth="2" NCoef="0" IVar="-1" Cut="7.4531547546386719e+01" cType="0" res="-9.9000000000000000e+01" rms="0.0000000000000000e+00" purity="5.1739168167114258e-01" nType="1"/>
          <Node pos="r" depth="2" NCoef="0" IVar="16" Cut="-4.4880416989326477e-01" cType="1" res="-9.9000000000000000e+01" rms="0.0000000000000000e+00" purity="4.9527698755264282e-01" nType="0">
            <Node pos="l" depth="3" NCoef="0" IVar="-1" Cut="0.0000000000000000e+00" cType="1" res="-9.9000000000000000e+01" rms="0.0000000000000000e+00" purity="5.1676511764526367e-01" nType="1"/>
            <Node pos="r" depth="3" NCoef="0" IVar="-1" Cut="0.0000000000000000e+00" cType="1" res="-9.9000000000000000e+01" rms="0.0000000000000000e+00" purity="4.7894215583801270e-01" nType="-1"/>
          </Node>
        </Node>
      </Node>
    </BinaryTree>
    <BinaryTree type="DecisionTree" boostWeight="5.9941862428303752e-02" itree="48">
      <Node pos="s" depth="0" NCoef="0" IVar="13" Cut="7.3951086425781250e+02" cType="0" res="-9.9000000000000000e+01" rms="0.0000000000000000e+00" purity="5.0737202167510986e-01" nType="0">
        <Node pos="l" depth="1" NCoef="0" IVar="-1" Cut="3.0722951889038086e+01" cType="1" res="-9.9000000000000000e+01" rms="0.0000000000000000e+00" purity="6.2892448902130127e-01" nType="1"/>
        <Node pos="r" depth="1" NCoef="0" IVar="13" Cut="1.0052114868164062e+02" cType="0" res="-9.9000000000000000e+01" rms="0.0000000000000000e+00" purity="5.0009012222290039e-01" nType="0">
          <Node pos="l" depth="2" NCoef="0" IVar="17" Cut="2.1034355163574219e+01" cType="1" res="-9.9000000000000000e+01" rms="0.0000000000000000e+00" purity="5.1750963926315308e-01" nType="0">
            <Node pos="l" depth="3" NCoef="0" IVar="-1" Cut="0.0000000000000000e+00" cType="1" res="-9.9000000000000000e+01" rms="0.0000000000000000e+00" purity="6.1087948083877563e-01" nType="1"/>
            <Node pos="r" depth="3" NCoef="0" IVar="-1" Cut="0.0000000000000000e+00" cType="1" res="-9.9000000000000000e+01" rms="0.0000000000000000e+00" purity="4.7653523087501526e-01" nType="-1"/>
          </Node>
          <Node pos="r" depth="2" NCoef="0" IVar="12" Cut="1.1160620880126953e+02" cType="0" res="-9.9000000000000000e+01" rms="0.0000000000000000e+00" purity="4.9624264240264893e-01" nType="0">
            <Node pos="l" depth="3" NCoef="0" IVar="-1" Cut="0.0000000000000000e+00" cType="1" res="-9.9000000000000000e+01" rms="0.0000000000000000e+00" purity="5.5591070652008057e-01" nType="1"/>
            <Node pos="r" depth="3" NCoef="0" IVar="-1" Cut="0.0000000000000000e+00" cType="1" res="-9.9000000000000000e+01" rms="0.0000000000000000e+00" purity="4.8736804723739624e-01" nType="-1"/>
          </Node>
        </Node>
      </Node>
    </BinaryTree>
    <BinaryTree type="DecisionTree" boostWeight="3.1774123863284556e-02" itree="49">
      <Node pos="s" depth="0" NCoef="0" IVar="13" Cut="1.1503654785156250e+03" cType="0" res="-9.9000000000000000e+01" rms="0.0000000000000000e+00" purity="5.1047331094741821e-01" nType="0">
        <Node pos="l" depth="1" NCoef="0" IVar="-1" Cut="0.0000000000000000e+00" cType="1" res="-9.9000000000000000e+01" rms="0.0000000000000000e+00" purity="6.9347703456878662e-01" nType="1"/>
        <Node pos="r" depth="1" NCoef="0" IVar="17" Cut="5.6687465667724609e+01" cType="1" res="-9.9000000000000000e+01" rms="0.0000000000000000e+00" purity="5.0553423166275024e-01" nType="0">
          <Node pos="l" depth="2" NCoef="0" IVar="-1" Cut="2.5765325927734375e+02" cType="0" res="-9.9000000000000000e+01" rms="0.0000000000000000e+00" purity="5.0880694389343262e-01" nType="1"/>
          <Node pos="r" depth="2" NCoef="0" IVar="-1" Cut="0.0000000000000000e+00" cType="1" res="-9.9000000000000000e+01" rms="0.0000000000000000e+00" purity="4.5064738392829895e-01" nType="-1"/>
        </Node>
      </Node>
    </BinaryTree>
    <BinaryTree type="DecisionTree" boostWeight="5.6474124629075466e-02" itree="50">
      <Node pos="s" depth="0" NCoef="0" IVar="13" Cut="9.2841687011718750e+02" cType="0" res="-9.9000000000000000e+01" rms="0.0000000000000000e+00" purity="5.0561708211898804e-01" nType="0">
        <Node pos="l" depth="1" NCoef="0" IVar="-1" Cut="0.0000000000000000e+00" cType="1" res="-9.9000000000000000e+01" rms="0.0000000000000000e+00" purity="6.6164654493331909e-01" nType="1"/>
        <Node pos="r" depth="1" NCoef="0" IVar="12" Cut="1.2062962341308594e+02" cType="0" res="-9.9000000000000000e+01" rms="0.0000000000000000e+00" purity="4.9951672554016113e-01" nType="0">
          <Node pos="l" depth="2" NCoef="0" IVar="17" Cut="2.7978244781494141e+01" cType="1" res="-9.9000000000000000e+01" rms="0.0000000000000000e+00" purity="5.3410631418228149e-01" nType="0">
            <Node pos="l" depth="3" NCoef="0" IVar="-1" Cut="0.0000000000000000e+00" cType="1" res="-9.9000000000000000e+01" rms="0.0000000000000000e+00" purity="5.7285654544830322e-01" nType="1"/>
            <Node pos="r" depth="3" NCoef="0" IVar="-1" Cut="0.0000000000000000e+00" cType="1" res="-9.9000000000000000e+01" rms="0.0000000000000000e+00" purity="4.7667968273162842e-01" nType="-1"/>
          </Node>
          <Node pos="r" depth="2" NCoef="0" IVar="12" Cut="1.7461763381958008e+01" cType="0" res="-9.9000000000000000e+01" rms="0.0000000000000000e+00" purity="4.9273690581321716e-01" nType="0">
            <Node pos="l" depth="3" NCoef="0" IVar="-1" Cut="0.0000000000000000e+00" cType="1" res="-9.9000000000000000e+01" rms="0.0000000000000000e+00" purity="5.0571322441101074e-01" nType="1"/>
            <Node pos="r" depth="3" NCoef="0" IVar="-1" Cut="0.0000000000000000e+00" cType="1" res="-9.9000000000000000e+01" rms="0.0000000000000000e+00" purity="4.1078162193298340e-01" nType="-1"/>
          </Node>
        </Node>
      </Node>
    </BinaryTree>
    <BinaryTree type="DecisionTree" boostWeight="4.0281891256283495e-02" itree="51">
      <Node pos="s" depth="0" NCoef="0" IVar="13" Cut="1.1503654785156250e+03" cType="0" res="-9.9000000000000000e+01" rms="0.0000000000000000e+00" purity="5.0888466835021973e-01" nType="0">
        <Node pos="l" depth="1" NCoef="0" IVar="-1" Cut="0.0000000000000000e+00" cType="1" res="-9.9000000000000000e+01" rms="0.0000000000000000e+00" purity="7.0940977334976196e-01" nType="1"/>
        <Node pos="r" depth="1" NCoef="0" IVar="13" Cut="2.5705856323242188e+02" cType="0" res="-9.9000000000000000e+01" rms="0.0000000000000000e+00" purity="5.0360590219497681e-01" nType="0">
          <Node pos="l" depth="2" NCoef="0" IVar="17" Cut="3.0984590530395508e+01" cType="1" res="-9.9000000000000000e+01" rms="0.0000000000000000e+00" purity="5.4732996225357056e-01" nType="0">
            <Node pos="l" depth="3" NCoef="0" IVar="-1" Cut="0.0000000000000000e+00" cType="1" res="-9.9000000000000000e+01" rms="0.0000000000000000e+00" purity="5.9013527631759644e-01" nType="1"/>
            <Node pos="r" depth="3" NCoef="0" IVar="-1" Cut="0.0000000000000000e+00" cType="1" res="-9.9000000000000000e+01" rms="0.0000000000000000e+00" purity="4.9902945756912231e-01" nType="-1"/>
          </Node>
          <Node pos="r" depth="2" NCoef="0" IVar="12" Cut="1.2548691558837891e+02" cType="0" res="-9.9000000000000000e+01" rms="0.0000000000000000e+00" purity="4.9751985073089600e-01" nType="0">
            <Node pos="l" depth="3" NCoef="0" IVar="-1" Cut="0.0000000000000000e+00" cType="1" res="-9.9000000000000000e+01" rms="0.0000000000000000e+00" purity="5.3471368551254272e-01" nType="1"/>
            <Node pos="r" depth="3" NCoef="0" IVar="-1" Cut="0.0000000000000000e+00" cType="1" res="-9.9000000000000000e+01" rms="0.0000000000000000e+00" purity="4.9263435602188110e-01" nType="-1"/>
          </Node>
        </Node>
      </Node>
    </BinaryTree>
    <BinaryTree type="DecisionTree" boostWeight="3.6607951001452380e-02" itree="52">
      <Node pos="s" depth="0" NCoef="0" IVar="13" Cut="9.2841687011718750e+02" cType="0" res="-9.9000000000000000e+01" rms="0.0000000000000000e+00" purity="5.0502878427505493e-01" nType="0">
        <Node pos="l" depth="1" NCoef="0" IVar="-1" Cut="0.0000000000000000e+00" cType="1" res="-9.9000000000000000e+01" rms="0.0000000000000000e+00" purity="6.0542893409729004e-01" nType="1"/>
        <Node pos="r" depth="1" NCoef="0" IVar="11" Cut="2.2628726959228516e+01" cType="1" res="-9.9000000000000000e+01" rms="0.0000000000000000e+00" purity="5.0084209442138672e-01" nType="0">
          <Node pos="l" depth="2" NCoef="0" IVar="-1" Cut="3.8604464381933212e-02" cType="0" res="-9.9000000000000000e+01" rms="0.0000000000000000e+00" purity="5.1841187477111816e-01" nType="1"/>
          <Node pos="r" depth="2" NCoef="0" IVar="1" Cut="5.1635342836380005e-01" cType="1" res="-9.9000000000000000e+01" rms="0.0000000000000000e+00" purity="4.9020221829414368e-01" nType="0">
            <Node pos="l" depth="3" NCoef="0" IVar="-1" Cut="0.0000000000000000e+00" cType="1" res="-9.9000000000000000e+01" rms="0.0000000000000000e+00" purity="5.0214904546737671e-01" nType="1"/>
            <Node pos="r" depth="3" NCoef="0" IVar="-1" Cut="0.0000000000000000e+00" cType="1" res="-9.9000000000000000e+01" rms="0.0000000000000000e+00" purity="4.7201862931251526e-01" nType="-1"/>
          </Node>
        </Node>
      </Node>
    </BinaryTree>
    <BinaryTree type="DecisionTree" boostWeight="4.2437744810457652e-02" itree="53">
      <Node pos="s" depth="0" NCoef="0" IVar="13" Cut="1.1227614746093750e+03" cType="0" res="-9.9000000000000000e+01" rms="0.0000000000000000e+00" purity="5.0270599126815796e-01" nType="0">
        <Node pos="l" depth="1" NCoef="0" IVar="-1" Cut="0.0000000000000000e+00" cType="1" res="-9.9000000000000000e+01" rms="0.0000000000000000e+00" purity="6.8346142768859863e-01" nType="1"/>
        <Node pos="r" depth="1" NCoef="0" IVar="5" Cut="1.0931850969791412e-01" cType="0" res="-9.9000000000000000e+01" rms="0.0000000000000000e+00" purity="4.9774330854415894e-01" nType="0">
          <Node pos="l" depth="2" NCoef="0" IVar="17" Cut="2.3445623397827148e+01" cType="1" res="-9.9000000000000000e+01" rms="0.0000000000000000e+00" purity="5.3089618682861328e-01" nType="0">
            <Node pos="l" depth="3" NCoef="0" IVar="-1" Cut="0.0000000000000000e+00" cType="1" res="-9.9000000000000000e+01" rms="0.0000000000000000e+00" purity="5.8971661329269409e-01" nType="1"/>
            <Node pos="r" depth="3" NCoef="0" IVar="-1" Cut="0.0000000000000000e+00" cType="1" res="-9.9000000000000000e+01" rms="0.0000000000000000e+00" purity="4.7719821333885193e-01" nType="-1"/>
          </Node>
          <Node pos="r" depth="2" NCoef="0" IVar="7" Cut="1.8950879573822021e+00" cType="0" res="-9.9000000000000000e+01" rms="0.0000000000000000e+00" purity="4.9440035223960876e-01" nType="0">
            <Node pos="l" depth="3" NCoef="0" IVar="-1" Cut="0.0000000000000000e+00" cType="1" res="-9.9000000000000000e+01" rms="0.0000000000000000e+00" purity="5.2413934469223022e-01" nType="1"/>
            <Node pos="r" depth="3" NCoef="0" IVar="-1" Cut="0.0000000000000000e+00" cType="1" res="-9.9000000000000000e+01" rms="0.0000000000000000e+00" purity="4.8908412456512451e-01" nType="-1"/>
          </Node>
        </Node>
      </Node>
    </BinaryTree>
    <BinaryTree type="DecisionTree" boostWeight="4.3846335901210849e-02" itree="54">
      <Node pos="s" depth="0" NCoef="0" IVar="13" Cut="1.1503654785156250e+03" cType="0" res="-9.9000000000000000e+01" rms="0.0000000000000000e+00" purity="5.1054978370666504e-01" nType="0">
        <Node pos="l" depth="1" NCoef="0" IVar="-1" Cut="0.0000000000000000e+00" cType="1" res="-9.9000000000000000e+01" rms="0.0000000000000000e+00" purity="6.6455018520355225e-01" nType="1"/>
        <Node pos="r" depth="1" NCoef="0" IVar="15" Cut="2.6011953353881836e+00" cType="1" res="-9.9000000000000000e+01" rms="0.0000000000000000e+00" purity="5.0640171766281128e-01" nType="0">
          <Node pos="l" depth="2" NCoef="0" IVar="16" Cut="-7.4804335832595825e-01" cType="0" res="-9.9000000000000000e+01" rms="0.0000000000000000e+00" purity="5.0947093963623047e-01" nType="0">
            <Node pos="l" depth="3" NCoef="0" IVar="-1" Cut="0.0000000000000000e+00" cType="1" res="-9.9000000000000000e+01" rms="0.0000000000000000e+00" purity="5.1936185359954834e-01" nType="1"/>
            <Node pos="r" depth="3" NCoef="0" IVar="-1" Cut="0.0000000000000000e+00" cType="1" res="-9.9000000000000000e+01" rms="0.0000000000000000e+00" purity="4.9313777685165405e-01" nType="-1"/>
          </Node>
          <Node pos="r" depth="2" NCoef="0" IVar="12" Cut="1.9002237319946289e+01" cType="0" res="-9.9000000000000000e+01" rms="0.0000000000000000e+00" purity="4.6086549758911133e-01" nType="0">
            <Node pos="l" depth="3" NCoef="0" IVar="-1" Cut="0.0000000000000000e+00" cType="1" res="-9.9000000000000000e+01" rms="0.0000000000000000e+00" purity="5.3191268444061279e-01" nType="1"/>
            <Node pos="r" depth="3" NCoef="0" IVar="-1" Cut="0.0000000000000000e+00" cType="1" res="-9.9000000000000000e+01" rms="0.0000000000000000e+00" purity="3.9915627241134644e-01" nType="-1"/>
          </Node>
        </Node>
      </Node>
    </BinaryTree>
    <BinaryTree type="DecisionTree" boostWeight="4.2550967151694340e-02" itree="55">
      <Node pos="s" depth="0" NCoef="0" IVar="13" Cut="9.2841687011718750e+02" cType="0" res="-9.9000000000000000e+01" rms="0.0000000000000000e+00" purity="5.0055998563766479e-01" nType="0">
        <Node pos="l" depth="1" NCoef="0" IVar="-1" Cut="0.0000000000000000e+00" cType="1" res="-9.9000000000000000e+01" rms="0.0000000000000000e+00" purity="6.0409194231033325e-01" nType="1"/>
        <Node pos="r" depth="1" NCoef="0" IVar="15" Cut="1.8008055686950684e+00" cType="0" res="-9.9000000000000000e+01" rms="0.0000000000000000e+00" purity="4.9604132771492004e-01" nType="0">
          <Node pos="l" depth="2" NCoef="0" IVar="12" Cut="2.3184923171997070e+01" cType="0" res="-9.9000000000000000e+01" rms="0.0000000000000000e+00" purity="5.2404654026031494e-01" nType="0">
            <Node pos="l" depth="3" NCoef="0" IVar="-1" Cut="0.0000000000000000e+00" cType="1" res="-9.9000000000000000e+01" rms="0.0000000000000000e+00" purity="5.4955041408538818e-01" nType="1"/>
            <Node pos="r" depth="3" NCoef="0" IVar="-1" Cut="0.0000000000000000e+00" cType="1" res="-9.9000000000000000e+01" rms="0.0000000000000000e+00" purity="4.8389384150505066e-01" nType="-1"/>
          </Node>
          <Node pos="r" depth="2" NCoef="0" IVar="15" Cut="-4.6022412180900574e-01" cType="1" res="-9.9000000000000000e+01" rms="0.0000000000000000e+00" purity="4.8985576629638672e-01" nType="0">
            <Node pos="l" depth="3" NCoef="0" IVar="-1" Cut="0.0000000000000000e+00" cType="1" res="-9.9000000000000000e+01" rms="0.0000000000000000e+00" purity="5.0322139263153076e-01" nType="1"/>
            <Node pos="r" depth="3" NCoef="0" IVar="-1" Cut="0.0000000000000000e+00" cType="1" res="-9.9000000000000000e+01" rms="0.0000000000000000e+00" purity="4.7559145092964172e-01" nType="-1"/>
          </Node>
        </Node>
      </Node>
    </BinaryTree>
    <BinaryTree type="DecisionTree" boostWeight="2.5274894421173307e-02" itree="56">
      <Node pos="s" depth="0" NCoef="0" IVar="13" Cut="8.1732110595703125e+02" cType="0" res="-9.9000000000000000e+01" rms="0.0000000000000000e+00" purity="5.1256245374679565e-01" nType="0">
        <Node pos="l" depth="1" NCoef="0" IVar="-1" Cut="0.0000000000000000e+00" cType="1" res="-9.9000000000000000e+01" rms="0.0000000000000000e+00" purity="6.6374802589416504e-01" nType="1"/>
        <Node pos="r" depth="1" NCoef="0" IVar="0" Cut="7.5301527976989746e-01" cType="0" res="-9.9000000000000000e+01" rms="0.0000000000000000e+00" purity="5.0578767061233521e-01" nType="0">
          <Node pos="l" depth="2" NCoef="0" IVar="-1" Cut="0.0000000000000000e+00" cType="1" res="-9.9000000000000000e+01" rms="0.0000000000000000e+00" purity="5.5297869443893433e-01" nType="1"/>
          <Node pos="r" depth="2" NCoef="0" IVar="12" Cut="1.2545591735839844e+02" cType="0" res="-9.9000000000000000e+01" rms="0.0000000000000000e+00" purity="5.0360620021820068e-01" nType="0">
            <Node pos="l" depth="3" NCoef="0" IVar="-1" Cut="0.0000000000000000e+00" cType="1" res="-9.9000000000000000e+01" rms="0.0000000000000000e+00" purity="5.2675300836563110e-01" nType="1"/>
            <Node pos="r" depth="3" NCoef="0" IVar="-1" Cut="0.0000000000000000e+00" cType="1" res="-9.9000000000000000e+01" rms="0.0000000000000000e+00" purity="4.9995422363281250e-01" nType="-1"/>
          </Node>
        </Node>
      </Node>
    </BinaryTree>
    <BinaryTree type="DecisionTree" boostWeight="3.2463175813044046e-02" itree="57">
      <Node pos="s" depth="0" NCoef="0" IVar="13" Cut="1.0190145263671875e+03" cType="0" res="-9.9000000000000000e+01" rms="0.0000000000000000e+00" purity="5.0791823863983154e-01" nType="0">
        <Node pos="l" depth="1" NCoef="0" IVar="-1" Cut="0.0000000000000000e+00" cType="1" res="-9.9000000000000000e+01" rms="0.0000000000000000e+00" purity="6.4004039764404297e-01" nType="1"/>
        <Node pos="r" depth="1" NCoef="0" IVar="15" Cut="1.3375008106231689e+00" cType="0" res="-9.9000000000000000e+01" rms="0.0000000000000000e+00" purity="5.0355988740921021e-01" nType="0">
          <Node pos="l" depth="2" NCoef="0" IVar="12" Cut="1.9064641952514648e+01" cType="0" res="-9.9000000000000000e+01" rms="0.0000000000000000e+00" purity="5.2417999505996704e-01" nType="0">
            <Node pos="l" depth="3" NCoef="0" IVar="-1" Cut="0.0000000000000000e+00" cType="1" res="-9.9000000000000000e+01" rms="0.0000000000000000e+00" purity="5.3722608089447021e-01" nType="1"/>
